0.559
0.341
0.821
-1.228
2.265
-0.359
1.542
3.294
1.162
-0.058
-0.802
-0.720
-0.156
-0.134
1.087
-0.228
2.039
-1.515
-0.682
-0.463
0.439
-1.133
1.567
1.283
-0.909
0.819
-1.141
0.678
2.337
-0.035
-0.280
-1.822
1.233
0.062
-1.292
0.053
2.238
0.203
-0.869
1.110
-0.656
-1.041
0.062
-0.208
-0.794
-0.123
-0.463
-2.009
1.006
-0.355
1.361
-0.252
0.958
0.001
-0.688
0.141
0.436
-0.881
2.251
0.376
-0.361
0.491
0.548
-1.464
-2.020
1.909
0.948
-1.071
0.274
-2.099
1.291
-0.448
-1.462
0.393
-0.417
0.300
-1.574
0.515
-0.483
-0.092
1.420
-1.397
0.228
0.150
0.236
-0.448
-0.780
0.662
-0.354
-1.411
-1.579
-1.148
-0.462
1.207
0.035
-0.043
-0.119
0.586
-0.215
-0.841
0.239
-1.105
1.393
-0.539
-0.592
0.945
0.075
-0.367
0.034
0.090
-0.971
0.521
-0.038
0.939
0.522
0.036
0.291
-1.366
0.549
-1.980
-0.502
-0.723
-1.183
-1.130
1.323
-0.604
-0.219
1.210
1.383
-0.569
1.561
-1.670
1.704
-0.171
0.946
-0.188
-1.456
-0.980
-0.074
-0.565
0.621
-0.800
1.315
0.353
-1.191
-0.292
2.136
1.707
1.048
0.752
-0.813
-2.171
0.299
-1.460
-0.747
-0.482
0.813
1.246
-0.725
-0.037
-1.561
0.967
-0.271
-0.156
0.428
0.574
-0.239
0.307
-0.677
0.785
-0.441
-0.925
-0.442
-0.825
-0.221
0.717
-1.191
1.883
1.443
-0.592
0.593
-1.311
0.582
-1.246
-0.251
-0.309
0.461
-0.612
0.838
1.177
-0.874
0.690
-1.171
1.093
-0.251
-1.274
0.997
-1.174
0.195
-0.230
-0.735
0.469
-0.255
0.205
-1.633
-1.341
-1.192
-0.977
0.621
-1.675
0.563
-0.759
0.832
-0.279
-0.113
-1.762
-0.997
0.176
-1.545
1.146
0.700
-0.586
0.274
-0.304
0.016
-0.691
0.430
1.333
0.049
0.125
0.815
0.917
-0.816
0.879
0.328
0.019
-0.452
1.108
-1.198
-0.218
0.213
0.689
0.591
-0.229
1.221
0.381
0.114
-1.575
-0.796
-1.095
0.597
1.299
0.392
-1.481
-0.767
0.726
-0.479
0.110
-0.760
0.851
-0.112
-1.849
-0.378
0.834
1.915
2.242
0.731
-0.989
0.806
-0.646
-0.456
-0.462
0.621
0.700
0.492
-1.010
-1.083
-0.832
0.526
-0.471
0.300
0.600
1.778
-0.046
-0.763
1.205
-0.025
-0.175
0.145
1.932
-0.678
-2.303
-0.359
0.436
0.507
2.168
2.139
1.787
0.053
0.202
-1.112
0.900
0.009
-1.625
-1.363
0.116
-0.550
1.206
1.019
-0.996
-0.419
1.140
2.511
0.023
-0.176
0.537
1.423
-2.075
-0.433
-0.218
-0.129
-0.287
1.516
-0.605
1.114
0.462
-0.092
0.344
0.014
-2.904
1.547
0.172
-1.171
0.269
-0.067
-2.179
-2.948
0.995
0.535
0.800
-1.695
-0.248
-0.785
-2.595
0.598
1.794
1.338
-0.513
1.384
-0.113
0.337
-1.165
0.415
-1.899
0.633
-1.024
-0.523
0.618
-0.395
-0.161
-0.188
-0.412
2.297
-1.161
-0.192
0.807
1.114
0.007
-0.068
0.605
-1.223
0.210
1.733
1.068
-0.858
-0.484
-0.064
0.916
0.753
2.306
-0.360
-1.285
0.895
0.014
0.617
0.177
0.409
0.343
-1.160
1.755
1.969
-0.148
0.754
2.504
-2.184
-0.967
0.058
-0.898
-1.048
0.898
-0.770
-1.125
0.101
-0.456
0.748
-1.059
0.105
-1.684
-0.017
0.680
1.367
0.116
-0.306
0.128
-1.298
0.042
0.351
-0.926
1.763
-0.990
-0.415
1.946
-1.913
0.539
0.540
1.142
0.337
0.298
-0.311
-1.712
-1.969
-1.415
-0.625
-0.730
-2.481
0.651
-1.315
0.911
-0.669
1.243
1.792
0.860
-0.070
0.228
-0.856
-1.817
0.631
1.299
1.197
0.358
-0.061
0.663
-1.595
0.999
0.401
0.245
-1.198
0.417
0.185
-0.291
0.445
-1.537
-0.689
-0.107
-0.262
-1.033
-0.682
0.197
0.075
-1.986
0.654
0.987
0.145
-0.297
-0.034
1.501
1.259
-0.886
-0.359
-1.154
1.932
0.032
-0.625
0.098
-0.257
-0.396
-1.468
-0.460
-0.549
0.159
-1.146
0.711
-0.282
0.581
0.792
0.518
-0.331
-0.632
0.135
-1.738
-1.211
0.986
-0.031
0.067
0.965
2.464
-0.010
-1.200
0.956
-0.669
1.157
1.150
1.041
-2.118
1.188
-0.800
-1.450
-0.264
-0.668
-0.816
0.206
0.283
0.815
0.238
-0.812
0.065
-1.106
-2.296
-2.948
-0.583
-2.133
0.375
0.038
0.028
-0.028
0.885
-0.218
0.692
0.493
0.228
1.994
-1.205
-0.224
-0.057
-0.981
-1.062
-2.279
-2.072
-0.813
0.092
-0.806
-0.403
0.369
-2.533
-0.336
-0.607
-1.928
0.597
1.266
0.592
1.323
-0.415
-0.290
0.280
1.071
0.580
0.302
0.256
-0.999
0.467
-0.392
-0.544
0.325
-0.014
-1.733
-0.247
-0.338
0.158
-0.528
0.879
0.396
-0.335
1.554
-0.173
-0.280
-0.136
-1.337
1.765
-0.771
1.575
0.662
0.457
-1.951
0.077
-0.313
0.236
-0.995
0.437
-0.825
-0.071
-0.091
-0.119
-0.606
-1.474
-1.658
-0.778
0.722
-1.236
-0.775
-0.275
-0.781
-0.908
1.558
0.085
-0.295
1.169
-0.775
-0.955
-0.373
1.029
-1.373
0.906
-2.116
0.615
-0.072
1.215
-0.064
1.357
-0.899
0.177
0.854
0.916
0.845
-0.396
-1.493
-0.786
1.549
-1.296
-0.190
0.345
0.030
0.597
1.119
-0.862
0.847
-0.148
-1.392
0.901
0.199
-0.152
0.240
-0.549
1.402
-0.414
0.955
-0.155
1.363
-1.742
0.266
-0.891
2.164
-3.442
0.413
0.319
-1.426
-1.781
-0.456
0.337
1.335
-0.012
-1.220
-0.500
-1.418
-0.603
0.894
0.303
1.142
-1.879
-0.420
-1.441
-1.165
1.824
0.256
-0.917
0.986
0.909
-0.088
1.100
0.953
1.156
-1.546
0.000
-1.121
0.160
0.632
0.280
1.107
-0.341
-0.984
-0.082
-1.608
0.584
-0.755
-0.125
0.153
1.268
-0.865
-1.527
1.985
0.036
0.456
-0.732
0.752
-0.860
0.136
0.891
-0.840
-0.564
2.208
-0.321
-0.454
0.805
-1.322
0.654
-0.631
-1.206
-0.898
-0.503
-1.068
0.767
3.388
0.644
-0.276
-1.967
0.276
-2.412
0.692
0.000
1.315
-1.051
-1.862
-0.864
-1.116
-0.786
-0.949
-0.898
-1.144
-1.361
-0.161
1.640
0.799
0.225
0.714
0.241
-1.332
-0.522
0.504
2.438
0.009
-0.541
0.702
-0.809
-0.655
-1.206
-0.142
-0.945
-1.727
-0.098
-1.046
1.752
0.885
-0.690
-1.739
1.059
1.444
-0.185
0.484
0.221
-2.216
0.027
-1.843
-0.153
-1.141
1.063
-1.017
0.692
-0.445
-0.492
0.570
1.484
0.012
-0.932
0.979
0.435
-0.024
-0.861
-0.549
-0.807
0.192
-0.751
-0.798
0.570
1.814
0.526
1.819
0.227
-1.245
0.682
-0.087
-0.472
-1.622
-0.879
-0.657
-0.652
-1.599
-2.704
1.971
0.391
-1.857
0.728
1.199
1.668
-1.188
-0.191
0.187
0.917
-0.328
-2.124
0.045
-1.172
-0.606
-0.673
0.538
0.522
0.676
-0.401
1.458
-0.413
-2.315
0.829
0.361
-1.415
-0.073
-0.132
0.481
-0.762
-0.120
-0.618
-1.362
1.013
-0.007
1.207
1.133
0.080
-0.023
0.197
1.472
0.038
-0.417
2.524
1.095
-0.267
0.611
0.223
0.532
-0.284
-2.135
0.229
-1.918
-0.029
0.276
0.538
1.597
1.724
0.745
-0.206
0.666
0.664
-1.824
-0.459
0.862
-2.260
-0.654
-1.376
-0.683
0.738
0.449
0.189
-1.757
1.826
1.053
1.142
-0.364
0.462
0.193
-0.366
-0.645
1.912
0.770
-0.314
1.203
-0.286
-0.031
0.977
0.288
-0.942
0.168
1.296
0.728
-2.633
1.729
0.869
-1.105
0.617
0.663
-0.418
-1.536
-1.247
0.479
-0.521
1.205
-0.713
-1.676
0.264
-0.075
0.714
0.757
0.309
-0.134
-0.927
-0.878
0.307
0.240
-2.235
0.106
-1.558
1.105
2.575
-1.728
-0.323
1.834
0.326
0.610
-1.900
0.245
-1.739
0.720
-1.121
-0.161
1.054
-0.316
-0.514
-0.837
0.475
0.836
-0.109
0.716
-0.740
0.265
-1.013
-0.762
-1.804
0.573
-1.006
0.473
0.023
0.134
-0.728
-0.455
-0.460
-0.177
-1.710
1.107
0.242
-0.779
-0.212
-0.403
0.445
0.176
0.793
-1.272
-1.779
1.261
2.392
-0.793
-1.292
-0.711
-1.007
-0.062
-0.364
0.597
-1.555
-0.169
3.356
-0.030
-0.493
-0.010
-0.054
2.490
2.348
0.011
1.116
-1.072
0.271
1.183
0.639
-1.786
0.856
-0.814
-1.018
-0.533
-0.343
-0.896
-0.209
-0.671
0.902
-1.254
0.326
-1.292
0.199
-0.552
-1.434
0.648
0.001
0.432
-0.851
0.135
-0.188
-1.052
-1.101
1.140
-1.146
0.762
0.680
1.046
0.540
0.687
-0.904
1.203
-0.784
1.259
-1.044
0.781
-0.276
0.297
-0.215
-2.695
0.246
-0.006
0.538
2.434
-0.786
0.073
1.511
-0.149
-1.257
0.042
-0.137
-1.231
1.383
-0.870
0.028
-0.199
-0.472
-1.277
-0.595
-1.874
-0.487
0.955
-0.735
-1.399
0.321
-0.247
-1.570
-0.840
0.911
-0.414
-2.375
-0.430
-1.257
-1.023
0.073
0.433
2.126
-0.925
-0.471
0.719
0.149
-0.726
0.100
1.655
-1.123
-0.131
-0.098
-0.737
1.222
0.964
1.826
-0.785
-0.453
0.241
-1.078
-0.178
0.009
-0.988
-0.641
1.289
-0.671
-0.461
1.068
-0.732
-0.076
-1.234
-0.836
0.732
-1.900
-1.211
-0.776
-0.032
0.388
1.558
-1.793
0.236
-0.200
-0.369
0.554
1.143
0.798
-0.796
-0.545
0.799
-0.067
-0.149
0.122
1.575
1.367
0.769
0.872
0.018
1.828
0.177
0.888
1.076
-0.203
0.889
-1.563
0.318
-0.192
-0.907
-1.006
1.005
-1.341
0.852
-0.015
-0.217
-0.600
1.114
-1.685
0.433
-0.743
0.989
-0.701
-0.560
-0.408
-1.746
0.238
-0.019
-0.208
-0.235
-0.386
-0.647
-1.677
-0.999
0.836
1.261
0.079
-0.067
-1.356
-0.513
-0.654
0.310
0.694
0.672
0.322
0.449
-0.167
-2.031
-1.689
-1.133
0.712
-0.218
-1.198
1.204
-1.991
-0.494
-0.614
0.986
0.074
0.592
-0.785
0.160
-1.429
-0.661
-0.235
0.402
0.811
1.251
-0.939
-0.869
-1.370
-0.358
-0.962
0.112
-1.066
-0.792
0.620
0.093
-0.723
-0.603
1.740
-0.557
-0.507
-0.463
-0.570
-0.021
-0.603
0.457
0.420
-2.042
-0.005
-1.670
-0.463
1.032
-0.629
-0.514
-0.884
-0.542
-1.834
-0.876
0.161
-0.074
-1.158
0.928
-1.009
0.924
-1.134
1.072
0.614
1.256
-1.055
-0.810
-0.382
-0.730
1.404
-0.851
-1.019
-0.759
1.065
-0.268
0.480
-1.247
0.512
0.312
2.129
0.109
0.299
-1.360
2.690
-0.641
2.375
-0.920
1.044
0.557
-0.743
1.491
1.208
-2.053
-0.317
-1.300
0.182
0.016
0.658
0.172
-0.819
0.009
0.882
1.063
1.714
-1.384
1.148
0.323
2.159
0.776
1.698
0.002
0.262
0.321
-1.142
1.046
-0.098
1.878
-0.183
0.698
-0.922
0.116
0.058
0.608
-0.527
-1.026
-0.016
-0.405
0.402
0.792
-0.387
0.616
1.233
-1.036
-0.953
-0.480
0.877
-1.174
-1.353
-1.087
1.013
-0.664
-1.352
0.727
0.886
-1.563
1.120
0.929
-0.497
0.684
1.689
0.095
0.004
-1.279
-0.520
1.581
0.223
-0.556
0.122
1.277
1.698
-0.138
0.879
-1.161
-0.705
-0.591
0.889
0.396
0.718
-0.929
-0.196
-0.823
2.045
0.626
1.741
0.318
-0.337
0.303
-0.982
-0.986
-1.254
-1.233
0.516
-1.203
-0.783
-1.774
-0.196
0.798
-0.955
0.427
-0.605
0.790
1.234
-2.240
2.039
-1.431
1.566
1.068
-0.558
-0.609
2.100
-2.462
0.575
0.035
-0.223
0.053
-0.340
1.134
0.456
0.492
1.128
1.504
0.873
-0.796
-1.749
-0.193
-0.139
-1.397
-0.078
-0.184
-0.859
0.533
0.738
-1.438
0.950
-0.218
0.195
1.521
1.128
1.744
0.905
0.522
-0.600
2.094
0.454
-0.902
0.302
-0.940
-2.326
-0.920
-1.190
0.697
-0.869
-0.780
-0.422
-0.623
-1.695
0.639
-0.715
-1.188
0.529
-1.497
0.406
-0.548
-0.172
0.494
0.929
1.548
1.354
-0.167
0.919
1.799
1.394
0.589
-0.356
1.188
-1.603
-0.969
-0.789
-1.192
0.622
0.251
0.936
-1.272
0.334
-0.464
-1.780
-0.947
-1.563
-0.567
-0.379
-1.479
-0.614
0.731
0.459
1.338
1.055
-0.520
-0.298
1.063
-0.167
-0.092
0.139
-1.095
-0.640
0.380
-2.057
-0.084
-0.352
1.952
-0.255
-1.409
-0.794
0.381
-0.694
-1.016
0.487
0.613
-0.532
-0.210
-0.241
-0.900
0.482
0.431
0.182
1.903
-1.006
-1.239
0.720
0.339
0.469
-0.588
0.268
-0.230
0.684
0.238
2.023
-0.016
1.359
0.243
1.854
-0.945
-0.412
0.021
0.269
-2.847
-0.277
-0.258
-1.277
0.154
-0.482
-1.228
0.459
-0.042
-0.294
-2.611
0.522
-0.470
-0.193
0.365
-0.218
2.956
1.649
-1.237
-0.307
0.803
-0.057
1.199
1.148
0.888
-2.108
1.917
0.436
-0.437
0.868
-2.940
-0.089
-0.558
-1.192
-0.928
-0.582
-0.605
-0.029
-0.438
-0.134
-1.086
0.725
1.853
-0.494
-0.638
-0.689
-0.332
-0.558
0.466
-1.148
0.316
0.401
-1.186
0.592
-0.479
-0.399
-0.060
-1.429
1.508
0.077
-0.675
-0.569
1.269
0.777
0.041
-1.519
-1.019
0.673
0.874
0.237
1.546
2.947
0.377
0.805
-2.802
-1.816
1.436
1.325
2.118
-0.878
-0.009
-0.601
1.419
0.530
1.378
-0.628
1.227
-1.487
-0.527
-1.078
1.700
0.526
1.752
0.891
-0.162
-0.093
-0.178
0.006
-0.518
0.440
-0.494
-2.037
-2.178
-0.015
-0.785
0.941
0.739
2.221
-0.167
0.477
0.954
-0.489
0.717
-0.916
0.422
0.244
0.111
0.038
1.098
-1.396
0.505
0.422
0.144
-1.125
-1.246
-0.675
0.995
0.605
-0.908
-1.372
-1.303
-0.076
0.345
0.219
0.241
0.680
-0.688
0.168
1.364
-1.554
-0.241
-0.360
0.215
-1.111
-0.681
-0.500
-1.410
-0.095
0.148
-1.033
-0.083
0.244
-1.270
0.673
0.641
0.244
0.914
0.117
-0.854
-0.074
1.269
-0.484
-0.101
-0.864
-1.640
1.175
1.157
0.573
0.627
-0.354
0.194
-0.368
-2.234
2.203
-1.231
0.227
-0.780
-0.777
-0.401
-0.418
0.102
-0.468
-1.312
-0.373
0.098
0.214
0.497
2.826
1.346
1.284
0.438
1.130
-0.841
-1.393
-1.025
-1.143
-0.708
-0.204
-0.742
0.250
-0.693
0.456
-0.120
0.041
0.496
-1.598
1.042
-0.462
-1.512
0.843
0.964
0.813
0.348
0.656
0.352
0.317
0.764
-0.024
-0.771
-0.135
2.029
0.639
0.836
-1.463
-0.012
2.214
-0.585
1.173
0.228
1.761
-0.026
-0.492
0.248
0.219
-0.913
-0.136
0.144
-1.822
-0.687
0.194
0.171
-0.467
1.062
0.030
-1.089
-0.961
0.431
0.593
0.835
0.472
-1.559
-1.881
0.265
0.241
0.450
0.982
-0.387
-2.421
1.304
0.293
-0.703
1.529
0.850
-0.943
-0.226
-1.971
-0.981
0.840
0.790
-1.005
-0.834
-0.061
-1.189
-0.167
0.325
-0.186
-0.416
-0.095
-0.011
-1.133
0.916
1.808
-0.372
-0.597
-0.688
-1.268
-0.132
-0.360
-0.693
0.486
-1.845
0.755
-1.153
-1.738
-0.701
-0.872
0.100
-1.042
0.542
0.906
-0.522
0.043
0.015
-1.064
2.917
-1.327
0.336
0.141
-2.805
-0.406
-1.157
1.059
-0.446
-0.149
-2.029
-0.589
0.296
-0.889
1.472
0.325
-0.069
0.017
0.082
1.041
-0.012
-1.210
0.028
0.352
0.246
-0.186
0.737
-0.290
0.258
1.312
-1.720
0.836
-0.774
-1.618
1.246
0.099
-0.382
0.745
-0.883
-0.276
0.419
1.702
0.551
-1.308
-0.419
1.270
1.565
0.372
0.967
-0.851
0.957
0.210
1.151
0.897
2.088
0.853
-0.641
0.601
-0.021
-0.601
-0.038
-0.594
-1.735
-1.367
-0.197
1.179
-0.123
-0.132
0.145
-0.852
0.230
1.284
0.221
0.466
-0.934
-0.946
-1.327
1.235
0.475
-1.575
-1.570
-2.162
1.009
0.819
0.774
2.309
1.478
-1.280
-0.475
-1.636
0.382
-2.625
0.405
-0.555
0.122
0.150
-0.227
-0.854
-1.231
-1.958
0.688
-1.767
-0.894
1.207
1.247
-1.665
1.275
-0.170
0.677
0.171
1.223
0.136
0.777
1.064
1.430
1.909
-0.659
0.461
-0.280
0.721
0.027
1.329
-0.307
1.308
-2.716
-0.438
0.344
-0.731
-0.805
1.076
-1.008
0.025
-1.663
-0.259
-0.616
0.330
0.333
-0.814
0.296
-0.701
1.029
-1.046
-0.697
0.544
-0.170
0.363
0.333
0.689
0.940
-2.229
0.453
0.781
-0.103
0.524
0.570
-2.758
-1.680
1.028
0.740
-0.181
-0.916
-1.486
0.993
-0.334
0.174
0.149
-0.464
0.143
0.688
0.765
1.185
-0.499
-1.030
-1.135
0.423
0.363
-0.461
-0.238
-0.061
-0.507
0.710
0.305
1.337
2.386
-0.219
-0.436
-0.065
0.062
-0.161
0.789
-0.473
0.971
-1.515
0.301
-0.349
-2.207
-0.114
-0.153
-0.301
1.753
0.088
0.153
0.348
0.675
-2.798
0.140
-0.487
-0.247
0.867
3.739
1.506
-0.279
-0.003
0.129
-1.818
0.862
-0.218
0.246
-1.052
-0.679
-0.671
-0.874
0.159
-0.578
-1.317
-0.072
-2.204
-0.362
0.483
-0.833
0.025
-0.067
0.882
1.091
0.453
-0.177
-0.538
-0.835
-0.749
-0.171
-0.504
0.206
1.426
-1.559
0.110
-0.948
-0.339
0.615
-1.342
-0.145
0.345
-1.908
1.095
0.906
0.645
-1.146
1.069
1.155
-0.301
-0.668
-0.370
0.413
0.196
0.425
-0.508
-0.036
-2.124
0.541
0.749
-0.884
-1.386
0.766
-0.918
1.069
1.171
0.265
-0.135
0.086
-1.607
0.801
1.476
-0.314
-0.022
-0.577
0.376
0.128
-0.294
-2.168
-1.346
-0.390
-0.004
0.461
-0.237
-1.322
-0.330
1.344
-0.427
-0.719
-0.767
1.549
1.517
-0.397
0.213
0.253
0.391
-1.411
1.786
0.156
0.453
0.483
-0.415
1.664
-1.285
0.330
-0.585
-1.129
0.404
1.420
-0.716
0.303
-0.357
-0.926
1.633
-0.704
0.186
-0.399
-0.995
-0.344
1.788
0.148
0.680
0.335
0.135
-0.869
-0.844
-0.378
0.208
0.670
0.251
0.188
-2.210
-0.354
0.027
-0.241
-0.126
0.782
-0.490
0.224
-0.073
0.392
-0.809
-0.165
-2.214
0.588
-0.724
1.042
-1.157
-1.723
1.122
0.328
-1.004
-0.035
-0.472
0.523
0.451
0.796
0.035
-0.696
0.021
-0.266
-1.589
-0.414
-0.612
-1.576
1.384
0.016
0.299
-0.583
-1.696
-0.227
0.751
0.163
-0.429
1.976
1.417
-0.683
0.399
-0.765
0.346
0.050
1.983
-0.325
0.122
-1.192
0.720
-0.115
2.322
-0.777
-0.965
0.395
-0.567
0.837
0.604
1.306
-0.648
1.030
0.586
-2.351
-0.323
1.676
0.937
-0.757
1.948
1.058
-0.713
-0.144
-0.180
-0.369
-0.660
0.582
-0.144
0.959
-1.250
-0.266
-0.857
0.503
-3.372
0.095
-1.269
1.062
-0.717
0.001
0.061
-0.296
0.769
0.975
-0.113
1.689
-2.598
0.715
-0.713
-0.007
0.971
3.655
0.938
0.760
0.480
0.489
1.217
-0.000
-0.447
-1.649
0.877
-0.382
-0.132
-0.912
-0.712
1.110
0.834
-0.092
-0.670
-0.410
-0.169
-1.396
-0.317
0.302
-0.646
1.087
-1.765
-0.229
-0.280
1.425
-1.372
-0.262
0.264
0.725
-0.835
1.156
1.098
2.427
-0.679
0.483
-2.268
0.799
-0.304
-0.607
0.347
0.755
-0.264
-0.406
0.734
0.097
-0.404
-0.291
1.495
-0.980
1.664
0.097
-0.495
0.248
0.660
0.132
-0.314
-0.505
1.081
-0.608
-0.973
-1.225
-0.138
1.351
0.150
-0.388
-0.788
0.018
0.896
1.009
0.014
-0.827
0.966
-1.812
-0.593
-1.294
2.144
1.264
-0.425
-0.375
0.293
-1.807
0.662
-0.340
1.328
0.911
1.915
0.842
0.883
1.734
-0.496
0.283
0.763
0.924
-0.546
-1.007
-0.355
1.172
-0.604
-0.843
0.501
0.114
0.696
0.850
0.300
-1.449
-1.675
1.787
0.256
2.420
-0.490
-0.906
-0.702
-1.711
0.581
-0.839
1.153
-0.327
-0.138
0.532
-0.640
0.519
0.039
-1.031
0.098
0.685
-0.477
0.096
1.013
0.292
-1.457
-0.707
-0.204
-0.881
1.359
-0.628
1.090
-1.280
0.324
-0.569
0.471
-0.942
-0.463
0.820
0.146
0.604
0.140
1.502
-0.619
-1.323
0.479
-1.642
0.272
0.173
-2.357
-0.606
1.077
-0.868
-1.762
0.127
1.204
0.777
0.350
-0.590
0.697
0.656
0.425
-0.614
0.223
-1.625
0.334
-0.406
0.095
-1.034
0.489
0.337
0.433
0.401
-0.191
-0.694
-0.007
-0.399
0.063
0.037
1.728
-0.466
-0.033
1.470
-1.047
-1.910
0.653
-0.566
0.682
2.577
-0.166
1.291
0.066
-0.297
-0.276
-0.871
-0.939
-1.403
1.231
0.226
-0.573
-0.802
-1.992
-0.187
1.233
1.586
1.631
1.117
-1.073
0.185
1.142
-1.901
0.179
-0.233
-1.373
-0.678
0.617
-0.736
-1.185
0.989
1.632
-0.394
0.292
0.500
1.070
0.376
0.076
-0.145
-0.845
-0.239
-0.883
0.228
0.930
0.589
1.005
-0.631
-0.309
0.373
-0.988
-0.545
3.136
-1.710
0.517
-0.270
0.138
0.485
0.072
-0.379
0.062
1.037
-0.361
0.559
0.686
0.261
-0.545
0.417
1.281
0.724
-1.440
-1.238
1.036
-0.173
-0.156
-0.810
-0.993
1.628
0.295
-3.918
-0.895
-0.296
0.798
1.646
1.115
0.288
-1.343
-0.685
-0.816
0.524
0.304
-1.154
0.043
-0.960
-0.436
-0.405
1.327
0.823
-0.773
-0.215
0.532
2.129
0.584
-0.972
-0.222
0.047
-0.157
-1.267
-2.789
-0.488
-0.172
-0.202
0.450
1.192
1.615
1.610
-0.974
0.031
-0.156
-0.472
-0.556
-1.073
0.903
-0.832
0.774
-0.425
1.200
-0.275
-1.320
0.606
-0.403
2.348
0.736
0.161
-1.321
-1.150
0.168
-0.641
-0.154
1.340
-0.129
-0.797
0.302
-1.498
-0.383
1.494
0.182
0.541
-1.017
0.825
0.521
-2.996
1.374
2.545
-1.231
-1.415
0.477
-1.084
0.804
-0.752
-0.003
-1.303
0.672
0.772
1.129
-1.753
0.178
-1.174
1.847
-1.277
-1.066
-1.012
-0.917
1.130
0.514
-0.765
-0.370
-1.657
-0.383
-0.033
-0.817
0.055
-1.699
-0.639
0.240
-0.142
-0.395
0.198
1.586
-2.143
-0.184
-0.328
0.972
0.000
1.138
-1.549
0.522
-0.676
-0.862
0.362
0.130
0.317
0.685
-0.159
1.472
-1.945
1.093
-0.869
0.886
1.571
0.751
-0.819
2.507
0.191
-0.827
-1.626
-0.447
0.996
-1.101
-0.878
-0.944
-0.328
1.279
-1.207
-0.428
0.001
-0.812
0.111
0.813
0.885
0.712
1.126
-0.178
-0.960
-0.044
-0.610
-1.123
-0.324
0.118
-2.120
-0.206
0.157
-0.426
-0.576
0.091
-0.334
-0.802
1.323
-1.261
0.869
-0.772
-1.840
1.039
-1.367
-1.273
-0.064
0.076
0.454
2.669
-2.334
0.673
-0.150
1.722
1.025
0.092
-0.309
-0.624
-1.201
1.598
0.510
-0.394
-0.546
-0.730
-1.880
-0.529
0.612
1.376
0.305
-0.158
1.309
-0.582
0.318
1.166
0.578
2.036
-1.767
-1.580
0.928
0.661
-2.553
-0.598
-0.028
2.449
0.241
-1.263
1.256
-0.039
-0.368
1.715
0.782
-1.973
2.840
-0.009
2.483
-0.489
0.369
-0.481
-0.602
0.234
0.925
-0.710
-1.041
-0.124
-0.910
0.149
1.570
-0.949
-0.224
-0.915
-0.040
-0.848
1.474
0.126
0.769
-0.475
0.883
-1.737
1.219
0.992
0.948
1.017
-0.966
-0.484
-0.575
-1.051
-1.015
-0.825
-1.420
2.242
-0.159
0.300
-1.786
0.957
1.284
1.929
-0.161
0.575
0.620
-1.024
-0.586
0.627
0.916
-0.793
0.895
0.519
0.872
-0.737
-0.680
-0.378
-0.344
0.607
-1.850
0.537
1.062
0.019
-0.460
0.650
-0.264
0.331
-0.562
0.279
-1.157
-0.122
1.376
-0.151
0.622
1.041
-0.681
0.300
-0.400
0.802
0.603
-0.006
1.710
-0.676
-0.669
0.691
0.398
0.065
0.009
0.627
-2.349
-0.771
1.251
0.587
-0.131
0.516
-0.405
1.086
-1.754
-1.529
-1.269
1.727
0.048
-0.998
0.029
1.581
-0.662
-0.108
0.381
0.631
-0.466
-0.030
-0.308
-1.484
0.904
-1.652
-0.636
0.701
1.535
2.185
0.051
1.354
0.644
-0.936
0.774
-0.127
-0.913
0.929
-0.114
-0.652
0.802
0.086
0.813
-1.416
-1.680
0.608
-1.105
0.081
-0.068
-0.083
-0.954
-1.071
-0.116
-0.423
-0.950
0.672
0.033
-0.757
-1.075
-0.964
1.541
-1.299
1.444
0.040
-1.460
-0.251
0.681
-0.884
-0.633
-0.528
0.355
-1.054
0.131
1.307
-0.027
-0.257
-1.303
0.949
-1.116
1.234
0.949
1.340
-0.028
-1.482
-0.293
0.667
1.128
1.010
-1.203
0.258
-0.870
0.469
1.318
-1.203
1.207
-0.177
1.579
-3.125
-0.091
1.451
-0.634
0.334
0.298
-0.686
0.045
-0.494
-0.579
-0.515
0.665
-0.404
1.066
-0.163
-0.096
-0.798
-0.003
-0.064
-0.940
1.651
1.385
-2.182
0.027
-1.107
0.334
0.050
1.669
0.290
0.907
-1.011
-0.074
0.208
2.554
2.194
0.287
-1.174
-1.016
-0.620
-0.190
-0.602
-1.525
-0.841
0.658
0.208
0.452
-0.103
-1.512
-0.658
1.719
-0.510
-1.764
-0.085
-1.825
1.508
-0.647
-1.354
-2.644
-1.627
1.800
-1.046
-0.898
1.399
0.665
1.915
-1.855
0.478
-0.669
-0.156
1.025
2.317
-1.154
0.228
0.970
-0.364
-0.098
-1.398
0.546
-0.980
0.496
0.750
-0.304
0.053
-1.590
-0.419
0.588
-0.711
-0.071
-0.750
2.030
0.355
0.391
-0.445
-0.193
-0.019
0.038
-0.299
1.146
-0.778
-3.142
0.614
0.346
-1.235
0.557
-0.948
-0.170
2.491
1.820
1.011
-2.147
-0.167
-0.085
-0.375
0.725
1.090
0.339
0.235
-1.457
0.574
-0.349
-0.212
0.813
-1.836
0.293
1.623
-1.087
0.485
0.805
1.292
1.444
-1.216
0.502
-0.988
1.360
0.313
-2.025
0.772
-0.610
0.337
0.018
-0.657
-2.292
-1.712
-0.466
2.471
0.734
2.217
-0.234
0.419
-0.031
0.105
-0.823
0.406
0.104
0.175
0.394
-0.151
0.342
1.887
1.410
1.300
0.266
0.060
0.504
1.100
-0.331
1.361
1.743
-1.062
-0.131
-0.437
0.425
0.999
0.332
-0.579
-1.682
0.144
-1.229
-0.085
-0.930
0.263
-1.546
-0.143
1.419
0.949
-1.155
1.355
-1.056
0.315
-1.194
0.206
0.549
-1.577
0.463
-0.205
0.147
0.629
1.338
-1.170
1.094
0.761
0.520
-0.904
-1.158
0.291
-2.293
0.757
0.605
1.304
0.082
-0.704
-0.469
0.271
0.002
-0.745
0.279
0.720
0.476
-1.693
-0.428
0.098
0.938
1.075
0.007
0.393
0.464
0.340
-0.830
-1.389
0.467
1.147
0.967
0.954
0.424
-0.430
1.550
-0.907
-0.577
0.964
0.141
0.084
-1.232
0.310
0.909
-0.211
0.531
-1.052
-0.328
-1.072
0.575
-1.664
0.179
-0.326
0.288
-1.263
-0.198
-0.882
3.319
0.154
0.920
-0.624
-1.603
1.772
-0.228
-0.030
0.402
-1.348
-1.595
0.750
0.141
-1.588
0.748
-0.294
1.780
0.315
0.909
0.143
0.483
0.091
-0.822
-0.372
1.317
0.943
0.025
0.869
1.334
0.566
-0.347
0.785
1.288
-0.141
-0.515
-0.311
0.606
0.560
1.133
0.078
-0.608
1.037
0.978
0.945
-0.026
-2.361
-0.999
-0.496
1.776
0.571
0.976
1.262
0.592
0.733
0.510
-1.194
0.841
0.324
-0.473
-0.463
1.100
-0.942
-0.001
1.345
-1.196
0.829
-2.384
0.705
-0.394
0.837
0.781
-0.167
0.505
-1.047
-0.141
-0.973
-1.523
-0.145
-0.327
-1.912
-1.309
-0.103
-1.192
-0.221
1.296
-1.172
1.386
-0.477
-0.878
0.442
-0.378
2.353
-0.162
0.243
-0.122
-0.734
1.502
1.995
0.405
0.938
-0.974
0.936
-0.786
0.473
1.777
-0.262
-0.177
-0.120
1.205
-1.237
1.191
0.694
-0.286
-0.179
1.191
0.335
-0.378
0.048
-0.008
-1.185
-0.794
0.788
0.560
-0.895
-0.220
0.489
0.361
-0.611
-0.193
-1.028
0.139
-0.118
-3.078
0.690
-0.544
-0.314
2.537
-2.630
-0.580
-0.539
-2.035
1.013
-0.283
1.512
0.302
1.161
-0.456
0.603
-0.309
0.818
-0.023
0.500
-0.613
1.357
0.843
-1.196
1.038
0.743
-1.182
1.331
1.541
0.392
0.819
1.367
-2.149
-0.166
1.208
0.499
-0.175
-0.689
1.330
1.068
0.219
-0.258
-0.120
0.330
-1.379
0.182
-0.038
0.383
-1.586
-1.779
0.309
1.037
-0.523
-2.396
0.320
1.892
0.791
-1.058
-0.871
0.364
-0.185
0.827
-0.613
0.559
0.285
1.237
0.418
-0.453
1.140
0.828
-0.299
1.044
-1.354
0.633
0.028
-1.787
-0.414
2.314
-0.755
1.419
1.256
0.536
-0.554
-0.702
-0.679
2.276
-0.168
-0.519
-0.002
0.249
1.712
-0.163
0.711
0.220
-0.120
3.066
-1.196
-1.264
-1.570
-0.346
-1.579
-0.512
1.331
0.686
0.986
-1.321
0.505
0.180
-0.435
0.774
0.979
-0.960
0.911
-0.738
1.111
0.362
0.000
-2.742
-0.237
-1.401
0.366
3.402
-0.115
0.863
1.676
1.156
0.545
-1.822
0.210
-0.672
-0.704
-0.867
0.610
0.367
-0.447
-0.392
0.378
0.416
0.438
1.245
0.069
-0.642
0.286
0.536
1.518
0.001
0.396
-0.615
-0.281
-1.055
-0.539
-1.888
1.222
0.005
-0.094
-1.500
-1.217
1.325
-0.555
-1.224
-1.141
-0.205
0.082
1.198
-0.873
-0.416
-0.340
-1.080
0.006
1.517
1.771
1.275
0.503
0.961
0.565
-0.717
1.177
1.052
-0.335
1.066
0.600
-0.575
1.256
-1.351
-1.032
0.685
1.193
0.815
-0.253
-0.712
-1.809
-0.185
0.340
-0.772
0.427
-0.686
-0.030
-0.762
-0.325
1.078
-1.109
0.611
-1.037
-0.313
0.288
0.350
-0.200
-1.533
-1.566
-0.685
0.661
0.140
-1.975
-1.647
0.467
0.881
0.634
0.813
-0.323
1.495
0.751
-0.000
0.154
0.234
0.629
0.537
0.217
-1.485
-0.360
1.353
-0.299
1.346
-0.797
-0.481
1.249
0.473
-0.887
-1.572
-1.664
-0.091
0.258
-0.710
-0.432
1.630
0.008
1.041
-0.298
-0.392
-1.165
0.182
-0.497
-2.394
0.983
1.757
1.191
1.069
-2.135
-0.147
0.038
-0.649
-0.250
1.987
0.397
-0.180
0.718
0.318
0.640
1.098
-0.480
0.442
0.618
1.292
-0.469
-0.788
1.266
1.827
-1.478
-0.578
0.769
-1.128
0.327
-1.238
2.303
0.843
-0.387
-0.140
0.043
-1.125
-0.935
-0.371
-0.592
1.218
0.478
0.336
0.231
-0.163
-0.753
1.629
0.408
0.374
0.727
-0.474
0.297
-0.350
0.716
0.128
0.907
0.028
-1.048
0.574
1.633
-1.200
0.868
-2.280
0.522
-0.248
2.112
-1.174
0.028
1.019
-2.272
1.060
0.637
-0.584
0.735
-0.141
0.375
0.069
-1.468
-1.321
0.985
-0.366
-0.695
0.509
1.185
0.164
-1.210
-1.454
1.189
-1.803
-0.641
0.301
1.120
0.388
1.522
-0.105
-0.706
1.375
0.917
0.427
-0.732
-0.350
0.078
1.351
-0.051
0.434
-1.440
-0.318
1.890
0.600
0.486
0.525
-0.467
1.098
0.570
0.460
1.556
0.130
1.692
2.026
0.991
-0.842
-2.543
1.804
1.047
-0.834
0.991
1.238
1.527
-2.173
-2.297
1.600
-2.179
1.001
-0.135
-1.991
0.013
-0.776
2.431
-0.255
-1.767
0.673
-0.131
0.936
-0.223
1.789
-0.230
-0.734
-0.110
-1.138
-0.740
1.520
1.227
-0.668
-1.211
0.557
-0.349
-0.972
-1.245
-0.735
0.084
-1.381
0.232
-2.002
0.316
-0.372
0.804
-0.187
-3.107
0.436
2.325
0.029
-2.547
-0.226
-2.325
-1.312
1.581
0.754
1.808
-0.210
0.304
1.809
0.288
-0.322
0.192
0.874
-1.031
1.089
0.323
-2.007
1.042
-0.376
-0.264
0.362
0.894
-1.004
0.900
-1.084
0.144
0.129
-0.466
-0.364
-0.293
1.661
0.154
-0.028
1.073
-0.029
0.423
-0.505
1.367
-0.193
1.048
-0.530
1.005
-0.338
1.180
0.904
-0.467
2.736
-1.399
0.192
-2.252
-0.270
-0.731
0.450
0.280
-0.679
0.166
0.684
-1.848
-0.710
-0.788
-0.649
0.595
-1.573
-0.586
0.488
-0.338
-0.002
0.237
-0.321
-0.548
0.638
-1.834
-1.167
-0.490
-0.591
1.539
0.310
0.535
0.183
-0.644
0.458
0.962
-0.258
-0.275
-0.599
-2.462
0.969
-1.569
1.721
-0.409
-0.622
-0.396
0.688
0.793
0.809
1.390
0.159
-1.810
-0.416
-0.901
-0.074
-0.091
0.176
-0.825
0.930
0.299
-0.022
0.370
-0.156
0.157
-1.122
0.235
0.331
-0.903
1.552
-0.083
0.283
0.645
0.051
-1.376
0.320
0.331
0.534
-0.884
0.148
-0.461
-1.007
2.246
-2.618
-0.217
0.275
-1.761
0.099
0.816
0.496
0.698
1.912
0.596
1.110
1.323
-1.087
0.855
0.104
-1.292
-0.338
0.239
0.635
-0.275
0.917
0.188
0.948
1.174
1.477
-0.466
-0.435
0.648
-1.553
-0.396
0.810
-1.571
0.446
0.058
0.609
1.996
-1.580
-0.778
-0.527
0.465
0.247
-1.828
0.121
0.797
-1.015
0.671
-2.178
-0.503
0.988
1.678
-0.786
0.666
-1.648
-1.742
0.731
0.246
0.070
0.329
-1.793
0.337
-0.024
-0.360
0.507
-0.285
-0.417
1.033
0.507
-0.316
-0.642
-0.558
-0.403
0.095
-1.110
-0.396
0.046
0.226
-2.339
0.584
0.626
1.708
1.711
0.545
-0.851
-0.546
0.697
1.810
0.650
-1.016
0.624
-1.492
0.010
-0.733
1.392
0.656
0.202
1.042
-0.472
0.458
0.923
-0.258
1.067
1.190
-1.003
-2.170
-2.132
1.254
1.857
0.803
0.938
-0.117
1.094
-0.733
0.117
0.296
-1.540
1.117
-1.184
-2.305
0.909
1.159
0.189
0.187
-0.504
1.282
1.476
-0.351
-0.934
-0.720
-1.628
0.398
-1.393
1.006
0.453
-1.559
-0.277
0.157
0.678
0.978
-0.833
-2.194
1.561
-0.535
0.864
-0.230
0.399
0.287
-0.522
1.367
0.190
-0.150
0.266
0.958
-0.938
-1.126
-0.232
-2.453
-0.487
-0.318
-1.501
2.150
-0.268
-0.025
0.833
-0.498
-0.437
-0.154
0.150
-0.475
-1.406
-0.346
-1.037
1.302
-1.295
-0.419
2.447
-0.834
0.517
1.160
-0.559
1.859
0.517
-0.659
-0.529
-0.905
-0.522
0.389
0.782
-2.097
-1.874
-0.355
-1.166
-0.467
-0.850
0.082
-1.850
-0.190
-0.864
0.615
-0.479
-0.633
-0.405
-0.433
0.465
-0.938
0.570
-1.925
-0.458
-1.023
1.299
-1.531
-0.057
0.853
-0.541
-1.674
0.056
-0.071
0.848
-0.248
0.661
0.924
-1.505
-0.910
0.068
-0.214
0.698
-0.818
-0.753
-0.844
-1.460
-0.416
1.590
2.069
-0.417
-0.611
0.267
-1.111
-0.679
-0.582
-1.452
0.595
-0.966
0.849
-0.744
-0.346
0.039
-0.531
-0.477
0.134
0.992
1.981
-2.016
-0.259
0.674
-0.104
-1.183
0.481
-0.113
0.226
-0.464
0.463
-1.751
-1.062
0.498
0.073
-0.399
1.420
0.253
-0.469
0.522
-1.397
0.622
-0.762
0.420
0.141
0.144
-1.069
-0.579
-0.577
-2.168
0.386
0.683
-0.021
-0.431
-1.202
-0.384
-1.256
1.964
0.027
1.466
-1.115
-2.321
1.729
0.136
0.927
0.251
-1.608
0.565
-0.117
-0.395
-0.351
-0.940
0.750
0.193
0.701
-1.529
-0.124
0.011
1.853
0.779
-0.144
0.779
-0.157
-1.358
0.006
-0.087
-2.049
-0.416
-0.720
1.136
1.311
-0.596
-1.234
-0.066
-0.538
0.322
0.186
-1.332
0.467
0.506
-0.645
-0.907
0.542
0.095
-0.722
-1.225
0.288
1.020
2.320
1.436
-1.253
0.730
0.548
-0.094
0.563
-0.598
-1.021
0.031
-1.108
-1.003
1.827
-0.299
0.274
-0.219
0.652
0.262
-0.255
-1.583
0.300
0.121
-0.073
-0.377
0.986
0.440
0.852
-0.868
-0.315
-0.915
0.243
0.214
0.302
1.066
0.515
-0.331
1.186
0.745
0.174
-0.486
-1.740
-1.101
-0.336
-0.568
0.251
-0.531
-0.519
0.606
1.969
1.035
-0.042
1.112
0.575
1.008
-0.832
-0.564
0.818
-1.233
-0.145
-0.292
-2.224
0.816
-0.387
0.066
0.646
0.269
0.010
0.543
-1.945
0.330
-1.902
1.484
0.406
-0.280
-0.253
0.363
2.068
0.368
0.573
1.566
1.674
0.368
0.250
0.789
-0.740
-1.056
1.342
-0.629
0.045
-2.911
0.090
1.413
-1.306
0.252
-0.619
-1.163
0.588
0.726
-0.071
0.560
0.189
-0.587
1.046
-1.462
-0.678
-0.558
0.501
-0.821
-0.118
0.084
-0.020
-1.574
-0.061
-0.707
0.180
-1.316
0.631
-0.836
-0.506
0.392
0.727
-1.457
-0.415
-1.452
-0.835
0.219
-1.642
-1.757
0.314
-0.456
-1.085
0.842
-0.457
-0.429
-0.557
-1.628
-0.303
0.482
-1.242
0.551
-0.926
-0.853
-1.940
-1.000
0.030
-0.202
-1.287
2.006
-0.282
0.796
0.214
-0.021
-0.962
-1.511
-0.181
0.904
0.549
-0.747
-1.497
1.748
-1.672
-0.814
-2.010
-1.479
0.138
1.481
1.859
1.261
-0.138
-2.284
0.038
-0.288
-2.283
-0.421
0.121
-0.815
0.451
0.678
-0.253
1.621
-0.046
2.351
1.108
-1.766
1.125
0.154
1.302
-0.447
-1.106
-1.301
0.446
-0.621
0.926
-0.636
-0.885
1.405
-0.630
-1.875
-1.763
0.589
1.006
1.415
0.885
0.584
-0.109
0.323
-1.235
0.097
1.041
-2.793
-1.861
0.519
0.233
0.730
-0.630
-2.419
-0.269
0.597
1.195
1.473
1.152
-1.387
-0.369
0.756
-0.264
-0.012
0.585
1.020
0.732
-0.174
1.894
1.167
-0.377
-0.374
-0.913
0.806
-1.272
-0.759
0.979
-0.900
0.114
0.600
-0.813
-0.128
-1.218
0.446
0.991
0.825
-0.107
0.769
-2.900
-0.572
2.019
-0.923
1.054
0.473
-2.795
-1.866
-0.431
1.363
0.086
-0.102
1.968
3.619
-1.096
-0.967
-0.137
-0.359
-0.148
-1.049
0.650
-1.740
-1.046
0.974
-0.583
-0.994
2.380
0.553
0.087
-0.135
1.233
-1.413
1.721
0.308
-0.420
0.020
0.657
-1.025
-0.568
-1.724
0.447
0.061
0.174
-0.529
-0.600
-0.255
-1.023
-1.466
0.045
-0.726
-0.624
-0.030
0.218
1.391
-1.473
2.319
1.079
-1.050
-0.643
0.738
-1.257
-0.925
-0.161
0.641
-0.752
0.707
0.534
1.267
-0.644
0.098
-1.170
-0.770
0.715
0.107
0.604
-0.348
-2.275
0.201
-1.812
1.286
0.345
-0.594
-0.292
0.596
-0.860
0.947
-0.291
-0.530
-1.821
0.369
0.316
-0.465
0.308
-0.612
-0.492
-0.475
-1.908
0.459
-1.190
0.292
-1.113
-0.562
-1.230
-0.508
0.850
0.548
-0.943
-0.316
0.864
-0.773
-1.611
-0.210
-1.128
-0.889
-0.692
-0.228
-0.274
-0.104
-1.098
0.699
-1.006
0.610
0.564
1.770
0.820
1.717
0.237
-1.590
-0.232
0.696
0.015
0.020
-1.549
0.948
-0.301
0.247
-0.232
1.255
0.830
-1.552
-0.208
0.494
-0.058
-0.795
-0.271
-0.282
-0.966
0.012
-0.951
-0.802
-1.520
-0.146
0.440
-0.570
-0.238
-2.030
-0.460
-0.030
1.130
-0.419
0.458
2.429
1.445
-0.993
0.812
-1.275
-1.584
-1.185
0.924
-0.554
0.940
1.093
-1.139
0.747
0.763
-0.076
0.826
0.184
-0.751
1.642
-0.733
0.326
0.675
0.266
-0.471
1.575
0.423
-0.685
0.045
0.881
-0.235
-0.273
-0.240
-1.124
-0.841
-0.307
-0.029
-0.165
-0.403
0.076
-0.798
0.335
0.121
-0.279
1.889
-0.536
0.872
1.824
-0.457
-1.435
-0.191
1.095
-2.068
-1.232
0.148
0.141
-1.146
-0.535
1.016
-0.855
-0.964
-0.733
1.840
0.211
-0.831
-0.525
-1.553
0.939
-0.528
-0.027
0.005
-0.177
-1.140
1.167
-0.482
1.602
-2.151
-1.707
-0.858
0.556
-0.554
0.809
0.622
-1.174
0.885
-0.557
0.819
0.409
0.875
0.241
0.042
-0.757
1.065
0.105
-0.919
0.618
1.034
-2.360
0.749
-0.092
0.084
0.571
0.724
-0.339
0.277
1.407
-2.052
-0.013
0.231
1.150
-1.656
-0.142
-2.298
1.193
-1.659
1.057
-0.933
0.726
0.526
-0.772
-0.354
-0.539
0.132
0.468
-0.873
0.370
0.860
0.490
0.176
-0.021
-1.589
1.273
0.188
-0.128
-0.793
-1.240
-0.328
0.526
0.234
-0.963
-0.248
0.672
0.801
-2.314
0.766
-0.867
-0.764
0.652
-0.765
0.552
0.792
-1.965
-0.532
-1.488
1.350
-1.410
1.405
-1.433
0.534
1.034
0.259
1.372
-0.616
-1.308
0.300
1.292
-0.781
-0.735
-0.576
-0.680
-2.035
0.333
0.095
0.091
2.043
0.501
0.095
-0.501
0.516
-0.602
0.576
0.285
-0.208
0.000
0.751
0.127
0.244
-2.719
0.199
0.523
-0.753
1.275
-1.020
0.052
0.321
0.906
-0.630
-0.138
-0.058
-1.223
1.380
-0.526
1.746
0.078
2.188
1.681
-1.865
1.068
1.422
0.708
-0.103
-0.294
-1.033
-0.759
-0.457
-1.481
0.724
0.706
-1.740
0.874
2.509
-0.205
0.109
-1.012
-1.234
0.342
0.708
-1.177
-1.303
-0.126
-1.384
-0.906
1.507
0.705
-1.426
-1.323
-0.545
1.103
-0.753
-0.939
-1.348
0.366
-0.125
-2.382
0.148
-0.694
-0.887
0.377
-1.957
1.166
2.479
2.221
0.011
-1.017
0.722
-0.119
0.283
0.586
-0.574
-0.361
-1.254
-0.137
-0.141
-0.247
-1.218
-0.352
-0.105
-0.115
-0.470
0.301
-0.195
0.527
1.109
1.915
1.192
0.011
-1.145
-0.178
-0.911
-0.225
0.650
-0.690
2.033
0.600
-1.574
1.001
-0.690
0.359
0.926
0.731
-1.092
-1.271
-0.247
1.340
-0.334
0.021
0.184
0.860
-1.540
1.875
0.352
-1.609
2.119
-1.638
-1.886
-1.300
0.758
-0.990
-1.716
1.286
-2.123
-0.185
0.864
-0.274
-0.008
-2.937
-0.671
0.632
-0.391
0.531
0.260
-0.967
2.873
0.797
-1.631
1.097
-1.084
-0.075
0.949
-0.992
0.167
-0.954
-0.127
-2.582
-1.573
0.162
0.075
-1.908
1.461
0.440
-2.642
0.098
-0.947
-0.716
1.305
0.752
-0.394
-1.180
-1.606
-0.095
1.447
1.483
1.952
1.470
0.656
-0.613
0.020
0.547
-0.838
0.229
-1.028
-0.435
0.408
-0.521
2.606
