0.559 0.431
0.734 -1.179
2.337 -0.383
1.576 3.294
1.154 0.029
-0.797 -0.671
-0.088 -0.130
1.047 -0.179
2.042 -1.469
-0.595 -0.465
0.346 -1.103
1.556 1.381
-0.876 0.835
-1.054 0.675
2.372 -0.112
-0.295 -1.813
1.219 0.123
-1.243 0.053
2.224 0.287
-0.801 1.115
-0.662 -1.075
0.069 -0.177
-0.714 -0.161
-0.477 -1.910
1.040 -0.375
1.361 -0.242
0.944 0.092
-0.618 0.147
0.471 -0.881
2.287 0.390
-0.356 0.498
0.632 -1.464
-1.988 1.918
0.903 -1.008
0.260 -2.090
1.258 -0.479
-1.394 0.341
-0.417 0.318
-1.487 0.507
-0.415 -0.091
1.455 -1.398
0.263 0.185
0.271 -0.488
-0.692 0.660
-0.402 -1.355
-1.529 -1.107
-0.468 1.174
0.021 0.006
-0.050 0.602
-0.173 -0.785
0.224 -1.021
1.463 -0.538
-0.598 0.871
0.076 -0.363
0.072 0.052
-0.933 0.525
0.043 0.946
0.560 0.071
0.326 -1.406
0.500 -1.896
-0.503 -0.722
-1.096 -1.119
1.323 -0.520
-0.136 1.212
1.418 -0.569
1.553 -1.586
1.718 -0.184
0.857 -0.138
-1.423 -1.013
-0.004 -0.639
0.675 -0.770
1.360 0.344
-1.123 -0.323
2.161 1.751
1.061 0.774
-0.826 -2.080
0.250 -1.373
-0.717 -0.512
0.813 1.213
-0.691 -0.071
-1.511 1.016
-0.190 -0.188
0.443 0.501
-0.170 0.235
-0.607 0.788
-0.371 -0.992
-0.456 -0.776
-0.138 0.684
-1.191 1.850
1.432 -0.546
0.543 -1.262
0.571 -1.149
-0.180 -0.310
0.510 -0.578
0.902 1.183
-0.825 0.739
-1.181 1.112
-0.262 -1.184
0.986 -1.125
0.195 -0.180
-0.652 0.435
-0.177 0.132
-1.600 -1.413
-1.121 -0.974
0.616 -1.669
0.636 -0.759
0.817 -0.229
-0.076 -1.761
-0.997 0.214
-1.507 1.146
0.661 -0.550
0.275 -0.222
-0.072 -0.642
0.468 1.264
0.122 0.068
0.809 0.919
-0.805 0.884
0.412 0.020
-0.403 1.143
-1.164 -0.294
0.166 0.725
0.632 -0.191
1.207 0.465
0.099 -1.477
-0.796 -1.046
0.667 1.302
0.377 -1.383
-0.686 0.706
-0.399 0.038
-0.725 0.810
-0.126 -1.759
-0.346 0.762
1.950 2.280
0.731 -0.954
0.876 -0.701
-0.407 -0.424
0.578 0.700
0.530 -1.010
-1.002 -0.814
0.595 -0.546
0.383 0.565
1.687 -0.016
-0.695 1.137
0.024 -0.137
0.221 1.929
-0.678 -2.342
-0.290 0.438
0.575 2.163
2.177 1.825
0.121 0.203
-1.081 0.910
-0.001 -1.528
-1.325 0.116
-0.463 1.206
1.019 -0.961
-0.383 1.175
2.563 0.040
-0.138 0.572
1.382 -2.040
-0.384 -0.180
-0.142 -0.189
1.427 -0.556
1.033 0.511
-0.043 0.393
0.047 -2.888
1.630 0.100
-1.089 0.275
-0.036 -2.176
-2.875 0.990
0.528 0.788
-1.627 -0.232
-0.725 -2.607
0.665 1.797
1.338 -0.491
1.296 -0.025
0.337 -1.127
0.453 -1.858
0.710 -1.073
-0.474 0.656
-0.323 -0.146
-0.150 -0.412
2.265 -1.126
-0.120 0.774
1.114 0.016
-0.035 0.571
-1.154 0.214
1.684 1.075
-0.786 -0.557
-0.071 0.919
0.822 2.272
-0.360 -1.186
0.807 0.098
0.687 0.141
0.395 0.392
-1.163 1.752
1.959 -0.101
0.792 2.515
-2.149 -0.918
-0.031 -0.808
-1.089 0.947
-0.781 -1.115
0.142 -0.419
0.658 -1.010
0.173 -1.759
-0.017 0.715
1.398 0.122
-0.233 0.139
-1.258 0.060
0.386 -1.003
1.756 -0.941
-0.369 1.945
-1.919 0.464
0.608 1.108
0.294 0.333
-0.311 -1.677
-1.882 -1.404
-0.575 -0.730
-2.408 0.613
-1.277 0.922
-0.669 1.281
1.786 0.825
-0.006 0.248
-0.871 -1.734
0.703 1.314
1.232 0.373
-0.100 0.701
-1.635 1.034
0.453 0.283
-1.164 0.433
0.177 -0.242
0.434 -1.529
-0.621 -0.140
-0.303 -0.996
-0.602 0.216
0.062 -1.907
0.675 0.956
0.056 -0.288
0.032 1.430
1.297 -0.837
-0.362 -1.141
1.977 -0.004
-0.596 0.118
-0.239 -0.299
-1.381 -0.463
-0.482 0.162
-1.153 0.712
-0.283 0.599
0.785 0.616
-0.346 -0.533
0.173 -1.689
-1.138 0.948
-0.027 0.035
0.958 2.469
-0.059 -1.115
0.944 -0.619
1.195 1.210
1.010 -2.069
1.224 -0.877
-1.379 -0.291
-0.632 -0.842
0.264 0.299
0.768 0.323
-0.812 0.021
-1.036 -2.370
-2.955 -0.577
-2.060 0.387
0.073 0.063
0.051 0.893
-0.136 0.694
0.450 0.192
1.945 -1.118
-0.152 -0.054
-0.909 -1.058
-2.279 -2.034
-0.745 0.088
-0.757 -0.374
0.358 -2.434
-0.351 -0.523
-1.856 0.524
1.336 0.592
1.323 -0.317
-0.254 0.280
1.145 0.504
0.365 0.281
-0.923 0.429
-0.325 -0.526
0.249 0.085
-1.736 -0.235
-0.300 0.169
-0.448 0.815
0.437 -0.300
1.589 -0.197
-0.281 -0.117
-1.273 1.692
-0.691 1.505
0.649 0.554
-1.952 0.075
-0.241 0.231
-1.001 0.453
-0.743 -0.103
-0.042 -0.119
-0.626 -1.412
-1.660 -0.767
0.722 -1.149
-0.687 -0.279
-0.748 -0.947
1.558 0.183
-0.223 1.166
-0.775 -0.985
-0.301 0.996
-1.382 0.837
-2.036 0.544
-0.078 1.219
0.005 1.361
-0.823 0.177
0.923 0.920
0.918 -0.394
-1.427 -0.778
1.467 -1.247
-0.114 0.341
0.094 0.549
1.107 -0.778
0.918 -0.146
-1.354 0.901
0.215 -0.114
0.201 -0.500
1.402 -0.404
0.944 -0.072
1.363 -1.658
0.304 -0.855
2.164 -3.357
0.408 0.319
-1.440 -1.683
-0.418 0.260
1.369 0.037
-1.186 -0.534
-1.384 -0.601
0.881 0.387
1.211 -1.875
-0.429 -1.437
-1.092 1.759
0.244 -0.830
0.975 0.999
-0.039 1.136
1.019 1.164
-1.464 0.003
-1.121 0.209
0.609 0.255
1.176 -0.326
-0.897 -0.085
-1.608 0.633
-0.679 -0.125
0.226 1.187
-0.863 -1.431
1.985 0.119
0.413 -0.752
0.659 -0.773
0.135 0.902
-0.767 -0.564
2.197 -0.233
-0.455 0.802
-1.273 0.615
-0.565 -1.189
-0.827 -0.501
-0.999 0.775
3.381 0.686
-0.296 -1.868
0.273 -2.409
0.741 0.035
1.353 -1.001
-1.780 -0.897
-1.043 -0.824
-0.914 -0.857
-1.107 -1.360
-0.163 1.563
0.871 0.225
0.785 0.244
-1.264 -0.517
0.537 2.404
0.043 -0.506
0.614 -0.711
-0.704 -1.157
-0.072 -0.977
-1.739 -0.149
-0.981 1.770
0.846 -0.641
-1.657 1.061
1.478 -0.136
0.519 0.220
-2.144 -0.006
-1.805 -0.142
-1.184 1.081
-0.983 0.730
-0.457 -0.394
0.579 1.486
0.012 -0.833
1.049 0.369
-0.073 -0.812
-0.476 -0.793
0.192 -0.653
-0.806 0.565
1.897 0.459
1.819 0.326
-1.173 0.679
-0.017 -0.459
-1.584 -0.879
-0.586 -0.648
-1.523 -2.689
2.020 0.440
-1.866 0.747
1.249 1.698
-1.150 -0.270
0.255 0.845
-0.342 -2.075
0.041 -1.166
-0.606 -0.589
0.574 0.571
0.746 -0.398
1.386 -0.398
-2.280 0.789
0.399 -1.369
-0.070 -0.037
0.476 -0.796
-0.049 -0.619
-1.290 0.979
0.031 1.242
1.204 0.005
0.046 0.213
1.432 0.073
-0.350 2.527
1.083 -0.218
0.611 0.306
0.525 -0.235
-2.086 0.190
-1.847 -0.102
0.276 0.538
1.635 1.758
0.663 -0.113
0.701 0.713
-1.786 -0.448
0.947 -2.260
-0.619 -1.326
-0.694 0.669
0.438 0.199
-1.674 1.830
1.136 1.086
-0.326 0.437
0.182 -0.282
-0.684 1.912
0.694 -0.230
1.199 -0.354
0.056 0.977
0.359 -0.977
0.160 1.222
0.679 -2.585
1.729 0.918
-1.145 0.617
0.652 -0.334
-1.498 -1.287
0.479 -0.472
1.273 -0.787
-1.643 0.190
-0.045 0.719
0.757 0.264
-0.148 -0.917
-0.812 0.312
0.240 -2.186
0.106 -1.542
1.096 2.587
-1.657 -0.352
1.818 0.421
0.610 -1.862
0.339 -1.810
0.790 -1.121
-0.074 1.059
-0.232 -0.588
-0.832 0.473
0.836 -0.099
0.706 -0.804
0.250 -0.964
-0.775 -1.807
0.607 -1.047
0.522 0.004
0.134 -0.645
-0.468 -0.376
-0.226 -1.622
1.058 0.329
-0.706 -0.211
-0.341 0.451
0.241 0.812
-1.188 -1.858
1.329 2.394
-0.739 -1.277
-0.725 -0.920
-0.149 -0.280
0.589 -1.528
-0.175 3.323
-0.045 -0.408
-0.013 -0.042
2.484 2.397
0.092 1.043
-1.037 0.282
1.189 0.669
-1.751 0.891
-0.730 -1.060
-0.458 -0.343
-0.860 -0.179
-0.644 0.909
-1.216 0.322
-1.254 0.199
-0.567 -1.424
0.574 0.051
0.426 -0.839
0.184 -0.152
-1.003 -1.052
1.212 -1.143
0.763 0.770
1.084 0.540
0.647 -0.943
1.192 -0.738
1.261 -0.961
0.767 -0.191
0.332 -0.165
-2.621 0.246
0.043 0.573
2.505 -0.774
0.067 1.458
-0.158 -1.255
0.116 -0.130
-1.155 1.394
-0.804 -0.004
-0.214 -0.404
-1.197 -0.576
-1.807 -0.481
0.936 -0.647
-1.361 0.325
-0.247 -1.472
-0.808 0.880
-0.420 -2.358
-0.360 -1.253
-1.063 0.073
0.520 2.126
-0.857 -0.470
0.709 0.195
-0.658 0.097
1.567 -1.040
-0.131 -0.098
-0.650 1.233
1.029 1.774
-0.702 -0.438
0.227 -1.015
-0.113 0.015
-0.995 -0.718
1.239 -0.573
-0.379 0.994
-0.664 -0.074
-1.162 -0.839
0.733 -1.898
-1.219 -0.849
0.036 0.399
1.544 -1.706
0.221 -0.115
-0.302 0.557
1.181 0.848
-0.720 -0.547
0.834 -0.064
-0.111 0.084
1.559 1.430
0.768 0.806
-0.023 1.862
0.249 0.858
1.076 -0.119
0.932 -1.567
0.303 -0.106
-0.833 -1.041
0.956 -1.256
0.890 -0.053
-0.232 -0.501
1.114 -1.636
0.451 -0.749
0.978 -0.602
-0.568 -0.431
-1.697 0.276
-0.061 -0.160
-0.173 -0.362
-0.647 -1.628
-0.916 0.802
1.346 0.092
-0.156 -1.258
-0.442 -0.652
0.377 0.663
0.652 0.341
0.483 -0.201
-2.000 -1.684
-1.061 0.678
-0.217 -1.149
1.280 -1.987
-0.505 -0.604
0.974 0.123
0.641 -0.750
0.160 -1.330
-0.654 -0.276
0.441 0.782
1.242 -0.857
-0.785 -1.444
-0.358 -0.878
0.024 -0.982
-0.705 0.623
0.044 -0.707
-0.519 1.695
-0.525 -0.579
-0.416 -0.643
-0.071 -0.505
0.449 0.507
-2.008 -0.079
-1.600 -0.460
0.993 -0.580
-0.543 -0.894
-0.523 -1.769
-0.876 0.161
-0.041 -1.229
1.012 -1.009
0.875 -1.050
1.065 0.618
1.337 -1.127
-0.738 -0.386
-0.643 1.392
-0.861 -0.937
-0.672 1.007
-0.195 0.491
-1.175 0.509
0.387 2.139
0.108 0.299
-1.273 2.652
-0.567 2.386
-0.852 1.048
0.611 -0.710
1.526 1.257
-2.015 -0.355
-1.294 0.186
0.044 0.679
0.197 -0.849
0.047 0.894
1.134 1.718
-1.312 1.078
0.404 2.168
0.863 1.709
0.040 0.297
0.309 -1.095
0.997 -0.014
1.869 -0.166
0.686 -0.838
0.101 0.068
0.640 -0.509
-0.938 -0.093
-0.371 0.403
0.743 -0.297
0.696 1.237
-0.963 -0.942
-0.492 0.847
-1.188 -1.269
-1.005 1.015
-0.580 -1.426
0.717 0.902
-1.489 1.122
0.918 -0.398
0.725 1.646
0.162 -0.066
-1.284 -0.505
1.566 0.310
-0.521 0.132
1.312 1.733
-0.103 0.914
-1.168 -0.738
-0.524 0.858
0.429 0.735
-0.898 -0.226
-0.750 2.048
0.709 1.708
0.387 -0.414
0.297 -0.976
-1.005 -1.274
-1.236 0.527
-1.165 -0.787
-1.687 -0.196
0.790 -0.909
0.427 -0.521
0.866 1.246
-2.157 2.040
-1.344 1.528
1.057 -0.473
-0.543 2.043
-2.432 0.534
0.035 -0.136
0.053 -0.310
1.207 0.448
0.561 1.128
1.498 0.964
-0.845 -1.662
-0.112 -0.121
-1.397 -0.044
-0.233 -0.810
0.609 0.735
-1.365 0.912
-0.150 0.124
1.606 1.128
1.654 1.004
0.434 -0.502
2.079 0.537
-0.868 0.318
-0.944 -2.327
-0.963 -1.228
0.778 -0.856
-0.704 -0.410
-0.592 -1.685
0.625 -0.633
-1.125 0.452
-1.425 0.325
-0.461 -0.175
0.570 0.925
1.582 1.281
-0.134 0.935
1.799 1.482
0.651 -0.380
1.139 -1.505
-0.975 -0.823
-1.140 0.634
0.249 0.941
-1.210 0.355
-0.472 -1.696
-0.909 -1.529
-0.486 -0.412
-1.491 -0.693
0.682 0.543
1.408 0.983
-0.522 -0.298
1.014 -0.117
-0.028 0.159
-1.057 -0.643
0.290 -2.007
-0.098 -0.268
1.990 -0.205
-1.328 -0.791
0.381 -0.656
-0.948 0.489
0.599 -0.436
-0.175 -0.207
-0.813 0.479
0.501 0.197
1.966 -1.035
-1.152 0.723
0.422 0.473
-0.521 0.288
-0.143 0.646
0.264 2.047
0.057 1.359
0.281 1.888
-0.983 -0.446
0.090 0.235
-2.779 -0.274
-0.223 -1.312
0.140 -0.384
-1.267 0.494
-0.042 -0.328
-2.613 0.522
-0.432 -0.226
0.442 -0.294
2.962 1.713
-1.154 -0.310
0.792 0.030
1.268 1.074
0.888 -2.010
1.868 0.524
-0.436 0.786
-2.858 -0.073
-0.646 -1.105
-0.890 -0.540
-0.523 -0.027
-0.359 -0.137
-1.048 0.760
1.895 -0.444
-0.720 -0.681
-0.247 -0.594
0.457 -1.139
0.399 0.402
-1.114 0.554
-0.403 -0.401
-0.149 -1.330
1.554 0.057
-0.645 -0.564
1.180 0.862
-0.047 -1.435
-0.951 0.650
0.918 0.276
1.581 2.997
0.338 0.840
-2.729 -1.882
1.364 1.410
2.107 -0.794
-0.023 -0.518
1.490 0.529
1.368 -0.580
1.139 -1.482
-0.470 -1.051
1.612 0.611
1.738 0.975
-0.129 -0.166
-0.111 -0.064
-0.446 0.367
-0.508 -2.004
-2.102 -0.053
-0.785 0.901
0.819 2.218
-0.093 0.439
0.869 -0.393
0.702 -0.907
0.408 0.323
0.103 0.066
1.091 -1.373
0.491 0.506
0.049 -1.076
-1.182 -0.656
1.030 0.642
-0.822 -1.408
-1.231 -0.060
0.378 0.227
0.274 0.608
-0.652 0.202
1.349 -1.471
-0.159 -0.393
0.207 -1.100
-0.613 -0.575
-1.346 -0.075
0.135 -0.946
-0.010 0.261
-1.203 0.669
0.691 0.285
0.984 0.145
-0.772 -0.058
1.285 -0.470
-0.114 -0.765
-1.569 1.180
1.065 0.660
0.545 -0.270
0.191 -0.403
-2.184 2.163
-1.239 0.196
-0.789 -0.770
-0.363 -0.422
0.151 -0.500
-1.225 -0.451
0.167 0.224
0.491 2.826
1.416 1.209
0.519 1.098
-0.856 -1.295
-0.955 -1.143
-0.675 -0.187
-0.709 0.266
-0.660 0.457
-0.044 0.039
0.456 -1.563
1.027 -0.378
-1.496 0.847
0.951 0.861
0.386 0.617
0.337 0.415
0.824 -0.036
-0.695 -0.124
2.025 0.639
0.872 -1.425
0.023 2.252
-0.512 1.184
0.297 1.769
-0.014 -0.469
0.250 0.267
-0.842 -0.134
0.095 -1.773
-0.649 0.243
0.082 -0.382
1.013 0.079
-1.105 -1.030
0.499 0.595
0.822 0.557
-1.474 -1.959
0.335 0.165
0.522 0.979
-0.316 -2.417
1.304 0.341
-0.616 1.529
0.835 -0.852
-0.228 -2.013
-0.981 0.878
0.793 -0.910
-0.761 -0.064
-1.114 -0.201
0.360 -0.259
-0.378 -0.046
-0.046 -1.104
0.984 1.775
-0.311 -0.588
-0.611 -1.259
-0.132 -0.276
-0.689 0.486
-1.812 0.722
-1.104 -1.704
-0.631 -0.907
0.092 -1.029
0.503 0.955
-0.484 0.078
-0.034 -0.980
2.966 -1.327
0.406 0.141
-2.770 -0.371
-1.078 1.071
-0.374 -0.145
-1.991 -0.592
0.379 -0.887
1.382 0.375
-0.031 0.052
0.154 0.963
0.073 -1.246
0.063 0.401
0.237 -0.188
0.786 -0.241
0.250 1.316
-1.720 0.797
-0.778 -1.606
1.315 0.100
-0.307 0.763
-0.895 -0.274
0.489 1.719
0.543 -1.210
-0.409 1.305
1.550 0.379
0.990 -0.874
0.992 0.210
1.138 0.946
2.077 0.951
-0.607 0.560
0.012 -0.585
-0.052 -0.544
-1.735 -1.367
-0.118 1.148
-0.132 -0.053
0.205 -0.844
0.297 1.302
0.288 0.475
-0.894 -0.915
-1.254 1.232
0.460 -1.488
-1.504 -2.147
1.073 0.845
0.806 2.312
1.478 -1.231
-0.404 -1.634
0.466 -2.623
0.475 -0.527
0.155 0.152
-0.227 -0.805
-1.195 -1.920
0.652 -1.730
-0.861 1.210
1.282 -1.662
1.226 -0.072
0.700 0.149
1.223 0.220
0.846 1.030
1.441 1.887
-0.588 0.389
-0.247 0.692
0.115 1.329
-0.269 1.274
-2.640 -0.441
0.346 -0.684
-0.772 1.091
-0.943 -0.031
-1.576 -0.262
-0.536 0.336
0.319 -0.715
0.247 -0.617
1.103 -1.044
-0.666 0.548
-0.099 0.330
0.331 0.695
0.857 -2.134
0.517 0.790
-0.104 0.447
0.640 -2.744
-1.642 1.025
0.691 -0.132
-0.879 -1.447
0.993 -0.331
0.209 0.199
-0.380 0.109
0.680 0.769
1.259 -0.485
-1.044 -1.085
0.412 0.374
-0.412 -0.285
-0.076 -0.420
0.795 0.305
1.371 2.387
-0.231 -0.390
-0.027 0.097
-0.093 0.797
-0.401 0.903
-1.482 0.229
-0.349 -2.123
-0.112 -0.119
-0.220 1.715
0.161 0.153
0.415 0.693
-2.733 0.159
-0.449 -0.247
0.934 3.667
1.506 -0.241
0.040 0.054
-1.742 0.824
-0.180 0.284
-0.982 -0.676
-0.603 -0.950
0.122 -0.532
-1.268 -0.085
-2.117 -0.366
0.535 -0.795
-0.024 -0.018
0.914 1.059
0.360 -0.078
-0.587 -0.751
-0.669 -0.153
-0.431 0.203
1.414 -1.510
0.064 -0.868
-0.267 0.615
-1.384 -0.107
0.378 -1.905
1.165 0.871
0.645 -1.146
1.100 1.131
-0.393 -0.570
-0.374 0.419
0.189 0.443
-0.444 -0.018
-2.136 0.545
0.738 -0.835
-1.315 0.776
-0.845 1.066
1.160 0.349
-0.139 0.106
-1.577 0.821
1.409 -0.229
0.059 -0.609
0.412 0.134
-0.298 -2.166
-1.346 -0.383
0.072 0.472
-0.235 -1.274
-0.243 1.355
-0.441 -0.635
-0.695 1.515
1.551 -0.397
0.283 0.258
0.379 -1.330
1.772 0.185
0.441 0.493
-0.333 1.669
-1.247 0.337
-0.594 -1.036
0.427 1.382
-0.681 0.341
-0.357 -0.923
1.622 -0.606
0.186 -0.300
-1.039 -0.344
1.788 0.148
0.749 0.262
0.135 -0.784
-0.772 -0.381
0.289 0.639
0.322 0.152
-2.161 -0.316
0.015 -0.154
-0.088 0.794
-0.419 0.226
-0.009 0.362
-0.780 -0.159
-2.179 0.637
-0.658 0.977
-1.217 -1.653
1.156 0.301
-0.949 -0.016
-0.434 0.477
0.451 0.845
0.035 -0.612
-0.068 -0.250
-1.556 -0.485
-0.576 -1.541
1.295 0.103
0.207 -0.498
-1.628 -0.299
0.755 0.250
-0.362 1.981
1.348 -0.601
0.471 -0.761
0.422 0.057
1.983 -0.325
0.122 -1.094
0.671 -0.031
2.319 -0.772
-0.897 0.400
-0.499 0.847
0.664 1.306
-0.655 1.037
0.608 -2.316
-0.334 1.679
1.007 -0.751
1.990 1.058
-0.631 -0.138
-0.191 -0.323
-0.668 0.588
-0.057 0.959
-1.257 -0.265
-0.792 0.472
-3.303 0.041
-1.202 1.031
-0.679 -0.037
0.061 -0.212
0.842 0.937
-0.041 1.616
-2.638 0.753
-0.637 -0.010
1.020 3.704
0.976 0.809
0.551 0.497
1.218 0.007
-0.381 -1.647
0.874 -0.426
-0.055 -0.947
-0.641 1.076
0.747 -0.084
-0.650 -0.375
-0.180 -1.347
-0.235 0.295
-0.648 1.084
-1.803 -0.191
-0.247 1.433
-1.306 -0.246
0.311 0.736
-0.835 1.123
1.059 2.465
-0.690 0.415
-2.221 0.802
-0.300 -0.604
0.430 0.756
-0.271 -0.357
0.734 0.184
-0.369 -0.256
1.529 -0.945
1.639 0.159
-0.408 0.245
0.646 0.181
-0.242 -0.502
1.008 -0.521
-0.987 -1.201
-0.100 1.351
0.119 -0.357
-0.722 0.022
0.983 1.012
-0.035 -0.744
0.952 -1.807
-0.555 -1.294
2.129 1.362
-0.391 -0.326
0.278 -1.758
0.574 -0.241
1.363 0.909
1.825 0.891
0.956 1.746
-0.502 0.286
0.829 0.928
-0.497 -0.969
-0.276 1.177
-0.558 -0.816
0.537 0.114
0.651 0.885
0.272 -1.400
-1.593 1.804
0.294 2.416
-0.452 -0.857
-0.716 -1.613
0.541 -0.790
1.153 -0.243
-0.051 0.529
-0.564 0.481
0.072 -1.015
0.174 0.682
-0.477 0.134
0.999 0.342
-1.383 -0.701
-0.204 -0.832
1.310 -0.622
1.078 -1.307
0.395 -0.568
0.448 -0.895
-0.428 0.820
0.140 0.566
0.208 1.429
-0.630 -1.236
0.551 -1.675
0.190 0.260
-2.358 -0.589
1.145 -0.898
-1.682 0.130
1.190 0.875
0.342 -0.571
0.738 0.692
0.453 -0.642
0.223 -1.534
0.292 -0.368
0.057 -0.984
0.561 0.352
0.455 0.452
-0.109 -0.678
0.042 -0.439
0.049 0.043
1.663 -0.382
0.054 1.473
-0.998 -1.876
0.726 -0.644
0.769 2.577
-0.102 1.260
0.054 -0.295
-0.364 -0.789
-0.873 -1.434
1.231 0.182
-0.627 -0.753
-1.925 -0.181
1.283 1.635
1.631 1.078
-1.119 0.185
1.209 -1.894
0.164 -0.134
-1.310 -0.753
0.666 -0.698
-1.110 0.955
1.667 -0.395
0.366 0.496
1.021 0.425
0.148 -0.145
-0.773 -0.273
-0.814 0.153
0.919 0.673
0.992 -0.549
-0.233 0.296
-0.923 -0.540
3.122 -1.620
0.546 -0.215
0.212 0.413
0.061 -0.295
0.096 1.041
-0.374 0.487
0.672 0.311
-0.517 0.417
1.269 0.735
-1.402 -1.238
0.987 -0.157
-0.114 -0.761
-0.969 1.633
0.284 -3.834
-0.815 -0.373
0.832 1.642
1.101 0.337
-1.256 -0.688
-0.747 0.523
0.290 -1.149
0.043 -0.919
-0.402 -0.370
1.325 0.858
-0.686 -0.215
0.566 2.088
0.495 -0.873
-0.151 0.049
-0.123 -1.253
-2.777 -0.509
-0.187 -0.118
0.523 1.203
1.691 1.621
-0.902 0.032
-0.107 -0.496
-0.569 -0.975
0.858 -0.787
0.761 -0.415
1.200 -0.191
-1.282 0.572
-0.334 2.363
0.770 0.196
-1.290 -1.145
0.204 -0.605
-0.121 1.342
-0.060 -0.792
0.287 -1.399
-0.386 1.491
0.253 0.546
-0.985 0.828
0.556 -2.993
1.409 2.594
-1.321 -1.317
0.383 -0.994
0.839 -0.751
0.030 -1.254
0.661 0.710
1.087 -1.793
0.158 -1.091
1.759 -1.193
-0.996 -0.995
-0.845 1.080
0.465 -0.666
-0.296 -1.693
-0.345 -0.033
-0.752 0.062
-1.704 -0.714
0.229 -0.058
-0.327 0.214
1.496 -2.045
-0.116 -0.328
0.970 -0.001
1.124 -1.451
0.523 -0.595
-0.782 0.292
0.218 0.317
0.671 -0.071
1.461 -1.858
1.129 -0.867
0.964 1.591
0.735 -0.817
2.578 0.195
-0.916 -1.535
-0.378 0.937
-1.028 -0.878
-0.957 -0.320
1.222 -1.234
-0.357 0.003
-0.730 0.114
0.877 0.895
0.757 1.104
-0.104 -0.960
0.006 -0.610
-1.055 -0.305
0.167 -2.160
-0.170 0.206
-0.426 -0.546
0.091 -0.296
-0.768 1.361
-1.231 0.874
-0.787 -1.753
1.025 -1.318
-1.239 -0.015
0.152 0.420
2.704 -2.336
0.660 -0.054
1.795 1.028
0.161 -0.382
-0.589 -1.201
1.683 0.507
-0.408 -0.497
-0.689 -1.842
-0.460 0.612
1.327 0.354
-0.085 1.320
-0.502 0.316
1.201 0.613
2.022 -1.676
-1.509 0.930
0.571 -2.469
-0.582 -0.031
2.399 0.328
-1.194 1.257
-0.039 -0.359
1.749 0.818
-1.897 2.840
0.072 2.451
-0.419 0.374
-0.444 -0.563
0.299 0.945
-0.639 -1.028
-0.135 -0.905
0.222 1.581
-0.899 -0.189
-0.836 -0.021
-0.782 1.481
0.191 0.774
-0.407 0.817
-1.668 1.221
0.994 1.044
0.968 -0.882
-0.484 -0.575
-1.052 -1.094
-0.833 -1.336
2.151 -0.074
0.342 -1.786
0.952 1.283
1.895 -0.111
0.610 0.669
-0.951 -0.590
0.692 0.919
-0.763 0.900
0.519 0.907
-0.748 -0.659
-0.308 -0.420
0.607 -1.767
0.603 1.080
0.026 -0.457
0.600 -0.166
0.361 -0.631
0.230 -1.073
-0.044 1.304
-0.068 0.618
1.076 -0.706
0.211 -0.313
0.875 0.607
0.065 1.712
-0.591 -0.746
0.687 0.362
0.051 0.094
0.578 -2.251
-0.683 1.248
0.576 -0.041
0.516 -0.442
1.087 -1.682
-1.448 -1.263
1.639 0.097
-0.966 0.035
1.655 -0.665
-0.033 0.396
0.717 -0.453
-0.030 -0.225
-1.440 0.908
-1.580 -0.639
0.691 1.461
2.221 0.086
1.385 0.648
-0.955 0.809
-0.176 -0.826
0.880 -0.064
-0.589 0.799
0.174 0.742
-1.416 -1.641
0.658 -1.064
-0.002 0.019
-0.048 -1.027
-1.111 -0.078
-0.438 -0.852
0.623 0.124
-0.701 -1.136
-0.897 1.544
-1.215 1.363
0.026 -1.376
-0.252 0.643
-0.842 -0.710
-0.448 0.278
-0.986 0.127
1.271 0.072
-0.257 -1.342
1.020 -1.152
1.271 0.949
1.340 -0.067
-1.415 -0.290
0.743 1.125
1.025 -1.201
0.260 -0.871
0.556 1.315
-1.168 1.242
-0.217 1.628
-3.124 -0.163
1.436 -0.550
0.369 0.298
-0.618 -0.027
-0.423 -0.574
-0.481 0.665
-0.373 1.004
-0.096 -0.099
-0.726 0.008
-0.079 -0.842
1.602 1.401
-2.114 -0.047
-1.066 0.369
0.137 1.631
0.358 0.903
-0.944 -0.068
0.291 2.557
2.145 0.386
-1.103 -1.088
-0.544 -0.175
-0.638 -1.515
-0.809 0.586
0.279 0.457
-0.117 -1.428
-0.588 1.722
-0.461 -1.729
-0.092 -1.726
1.509 -0.638
-1.365 -2.595
-1.553 1.800
-1.032 -0.936
1.399 0.757
1.903 -1.768
0.516 -0.619
-0.118 0.981
2.317 -1.142
0.228 0.973
-0.288 -0.136
-1.331 0.508
-0.897 0.496
0.741 -0.300
0.119 -1.607
-0.351 0.592
-0.676 -0.022
-0.679 2.046
0.425 0.409
-0.410 -0.144
0.011 0.087
-0.226 1.163
-0.792 -3.055
0.697 0.347
-1.168 0.526
-0.913 -0.120
2.478 1.827
1.081 -2.144
-0.162 -0.089
-0.302 0.722
1.140 0.296
0.225 -1.371
0.657 -0.426
-0.145 0.816
-1.767 0.298
1.612 -0.989
0.547 0.815
1.366 1.406
-1.178 0.451
-0.916 1.365
0.382 -2.020
0.772 -0.561
0.288 0.116
-0.691 -2.243
-1.714 -0.455
2.451 0.770
2.289 -0.312
0.328 0.053
0.056 -0.740
0.483 0.111
0.213 0.324
-0.078 0.304
1.838 1.494
1.300 0.364
0.093 0.520
1.090 -0.237
1.431 1.695
-1.024 -0.193
-0.443 0.427
1.000 0.387
-0.579 -1.594
0.197 -1.286
-0.014 -1.005
0.214 -1.497
-0.093 1.468
0.860 -1.146
1.403 -1.031
0.304 -1.160
0.198 0.517
-1.502 0.461
-0.205 0.147
0.716 1.336
-1.122 1.111
0.831 0.520
-0.953 -1.109
0.291 -2.209
0.793 0.633
1.338 0.124
-0.624 -0.462
0.305 -0.071
-0.754 0.207
0.790 0.482
-1.625 -0.423
0.131 0.931
1.071 0.095
0.476 0.466
0.321 -0.746
-1.321 0.484
1.133 1.065
1.024 0.438
-0.361 1.519
-0.839 -0.575
0.998 0.177
0.119 -1.194
0.375 0.841
-0.138 0.542
-1.020 -0.324
-1.079 0.577
-1.594 0.180
-0.316 0.304
-1.230 -0.231
-0.844 3.315
0.154 0.969
-0.559 -1.598
1.767 -0.215
-0.036 0.403
-1.397 -1.497
0.817 0.123
-1.558 0.759
-0.226 1.708
0.397 0.849
0.181 0.444
0.175 -0.822
-0.299 1.237
0.978 0.039
0.942 1.334
0.630 -0.339
0.868 1.292
-0.168 -0.450
-0.273 0.568
0.595 1.095
0.116 -0.559
1.114 0.992
0.950 0.057
-2.292 -1.066
-0.506 1.777
0.609 0.936
1.297 0.533
0.722 0.590
-1.125 0.845
0.398 -0.471
-0.469 1.067
-0.877 0.019
1.334 -1.098
0.867 -2.349
0.777 -0.428
0.855 0.798
-0.135 0.452
-0.979 -0.124
-0.902 -1.526
-0.110 -0.327
-1.879 -1.301
-0.152 -1.107
-0.153 1.262
-1.098 1.397
-0.526 -0.786
0.442 -0.342
2.277 -0.082
0.232 -0.037
-0.734 1.551
1.946 0.492
0.972 -0.995
1.011 -0.770
0.501 1.784
-0.228 -0.177
-0.087 1.220
-1.168 1.157
0.683 -0.188
-0.211 1.245
0.322 -0.294
0.041 -0.081
-1.153 -0.776
0.862 0.573
-0.820 -0.253
0.440 0.444
-0.582 -0.223
-1.031 0.139
-0.187 -2.992
0.690 -0.446
-0.255 2.551
-2.561 -0.614
-0.630 -2.024
0.933 -0.199
1.512 0.389
1.112 -0.372
0.603 -0.225
0.732 0.076
0.494 -0.558
1.308 0.928
-1.117 1.046
0.719 -1.171
1.418 1.538
0.479 0.781
1.441 -2.147
-0.093 1.205
0.563 -0.156
-0.620 1.296
1.144 0.162
-0.223 -0.159
0.330 -1.296
0.266 -0.073
0.415 -1.579
-1.729 0.309
1.110 -0.523
-2.323 0.317
1.853 0.833
-0.990 -0.856
0.290 -0.175
0.872 -0.586
0.510 0.376
1.309 0.384
-0.381 1.151
0.814 -0.209
1.062 -1.338
0.634 0.076
-1.712 -0.398
2.306 -0.749
1.419 1.339
0.536 -0.554
-0.633 -0.663
2.227 -0.085
-0.485 0.013
0.301 1.718
-0.163 0.672
0.132 -0.022
3.025 -1.158
-1.281 -1.483
-0.308 -1.544
-0.444 1.335
0.773 0.986
-1.252 0.474
0.214 -0.436
0.841 0.981
-0.891 0.913
-0.670 1.113
0.394 0.038
-2.670 -0.275
-1.319 0.375
3.437 -0.077
0.939 1.599
1.140 0.522
-1.739 0.231
-0.672 -0.655
-0.833 0.607
0.408 -0.416
-0.313 0.375
0.401 0.449
1.304 0.070
-0.649 0.303
0.605 1.528
0.073 0.394
-0.547 -0.262
-1.017 -0.622
-1.810 1.243
-0.044 -0.010
-1.467 -1.208
1.326 -0.472
-1.199 -1.141
-0.206 0.099
1.184 -0.788
-0.416 -0.311
-1.004 0.006
1.578 1.721
1.310 0.538
0.961 0.614
-0.639 1.174
1.003 -0.325
1.060 0.603
-0.546 1.276
-1.313 -0.997
0.734 1.228
0.893 -0.254
-0.730 -1.871
-0.085 0.307
-0.778 0.444
-0.696 -0.061
-0.693 -0.307
1.078 -1.060
0.605 -1.113
-0.248 0.257
0.435 -0.198
-1.542 -1.562
-0.611 0.678
0.129 -1.967
-1.564 0.434
0.867 0.717
0.866 -0.277
1.446 0.800
0.087 0.165
0.265 0.647
0.525 0.301
-1.447 -0.311
1.424 -0.286
1.384 -0.748
-0.485 1.244
0.379 -0.789
-1.585 -1.580
-0.016 0.259
-0.638 -0.425
1.623 0.099
1.082 -0.260
-0.431 -1.130
0.264 -0.495
-2.396 0.994
1.742 1.282
1.105 -2.129
-0.152 0.004
-0.580 -0.233
2.022 0.432
-0.153 0.729
0.380 0.655
1.069 -0.396
0.513 0.629
1.281 -0.370
-0.714 1.195
1.879 -1.452
-0.490 0.693
-1.168 0.349
-1.188 2.352
0.794 -0.296
-0.148 0.047
-1.059 -0.916
-0.333 -0.543
1.290 0.484
0.298 0.241
-0.129 -0.786
1.541 0.492
0.371 0.724
-0.481 0.264
-0.300 0.677
0.201 0.913
0.014 -0.960
0.609 1.607
-1.118 0.836
-2.250 0.492
-0.216 2.118
-1.106 0.044
0.932 -2.190
1.011 0.736
-0.585 0.697
-0.054 0.375
0.104 -1.433
-1.239 0.982
-0.434 -0.646
0.578 1.116
0.159 -1.196
-1.419 1.189
-1.765 -0.679
0.372 1.136
0.381 1.552
-0.035 -0.706
1.361 1.001
0.389 -0.695
-0.320 0.097
1.302 0.047
0.520 -1.427
-0.253 1.819
0.589 0.585
0.476 -0.384
1.094 0.495
0.527 1.524
0.165 1.728
2.095 1.006
-0.768 -2.578
1.790 1.145
-0.762 0.942
1.310 1.542
-2.185 -2.215
1.551 -2.095
1.073 -0.122
-1.921 -0.020
-0.703 2.442
-0.344 -1.718
0.674 -0.122
0.925 -0.138
1.703 -0.224
-0.661 -0.104
-1.104 -0.724
1.591 1.149
-0.630 -1.177
0.587 -0.315
-0.937 -1.285
-0.704 0.088
-1.354 0.204
-1.967 0.350
-0.373 0.766
-0.187 -3.019
0.509 2.340
0.115 -2.607
-0.240 -2.241
-1.356 1.616
0.787 1.775
-0.237 0.353
1.847 0.337
-0.287 0.153
0.862 -1.025
1.126 0.369
-1.924 1.057
-0.345 -0.295
0.435 0.909
-0.933 0.866
-1.089 0.110
0.114 -0.457
-0.337 -0.271
1.651 0.241
-0.035 1.076
0.001 0.428
-0.436 1.372
-0.159 0.994
-0.530 0.942
-0.265 1.176
0.906 -0.384
2.725 -1.312
0.191 -2.157
-0.358 -0.647
0.484 0.322
-0.609 0.169
0.607 -1.799
-0.675 -0.785
-0.611 0.607
-1.505 -0.585
0.488 -0.251
0.073 0.241
-0.370 -0.539
0.589 -1.784
-1.206 -0.490
-0.557 1.540
0.271 0.535
0.090 -0.557
0.525 0.974
-0.220 -0.279
-0.599 -2.421
1.007 -1.535
1.756 -0.449
-0.553 -0.379
0.655 0.754
0.882 1.387
0.208 -1.760
-0.465 -0.816
-0.078 -0.075
0.235 -0.887
0.930 0.348
-0.023 0.372
-0.076 0.164
-1.087 0.269
0.328 -0.863
1.574 -0.109
0.356 0.648
0.117 -1.359
0.314 0.259
0.578 -0.858
0.060 -0.374
-0.969 2.257
-2.580 -0.222
0.335 -1.831
0.178 0.814
0.528 0.702
1.904 0.694
1.088 1.290
-1.087 0.855
0.090 -1.205
-0.270 0.167
0.678 -0.283
0.917 0.237
1.016 1.141
1.462 -0.367
-0.436 0.585
-1.486 -0.380
0.797 -1.522
0.495 0.093
0.677 1.963
-1.507 -0.781
-0.515 0.387
0.285 -1.828
0.188 0.803
-0.942 0.668
-2.156 -0.461
0.962 1.704
-0.715 0.668
-1.652 -1.728
0.717 0.345
0.157 0.326
-1.724 0.306
0.045 -0.435
0.502 -0.290
-0.353 1.037
0.494 -0.229
-0.642 -0.598
-0.332 0.097
-1.072 -0.364
0.046 0.226
-2.340 0.546
0.702 1.708
1.720 0.497
-0.764 -0.546
0.779 1.777
0.650 -0.931
0.609 -1.443
0.010 -0.771
1.461 0.674
0.271 1.008
-0.399 0.458
0.923 -0.160
1.082 1.195
-0.954 -2.121
-2.065 1.250
1.927 0.824
0.938 -0.029
1.090 -0.731
0.184 0.263
-1.453 1.128
-1.184 -2.220
0.980 1.130
0.224 0.221
-0.470 1.298
1.476 -0.351
-0.866 -0.714
-1.632 0.360
-1.359 1.021
0.442 -1.461
-0.197 0.126
0.677 0.974
-0.853 -2.182
1.561 -0.497
0.935 -0.215
0.399 0.336
-0.455 1.298
0.228 -0.150
0.279 0.928
-0.938 -1.077
-0.213 -2.418
-0.417 -0.388
-1.428 2.161
-0.186 -0.033
0.833 -0.411
-0.444 -0.137
0.101 -0.377
-1.334 -0.350
-1.037 1.340
-1.263 -0.416
2.442 -0.831
0.566 1.209
-0.487 1.870
0.546 -0.612
-0.535 -0.979
-0.497 0.312
0.820 -2.048
-1.801 -0.359
-1.090 -0.470
-0.780 0.080
-1.812 -0.192
-0.794 0.619
-0.407 -0.620
-0.336 -0.509
0.454 -0.839
0.562 -1.838
-0.409 -0.988
1.250 -1.433
0.015 0.860
-0.540 -1.584
0.048 -0.022
0.826 -0.199
0.710 0.973
-1.456 -0.872
0.110 -0.179
0.768 -0.816
-0.765 -0.760
-1.499 -0.416
1.584 2.050
-0.462 -0.561
0.267 -1.101
-0.648 -0.613
-1.372 0.523
-0.928 0.860
-0.695 -0.312
0.005 -0.496
-0.406 0.150
1.066 1.918
-1.942 -0.297
0.672 -0.140
-1.103 0.484
-0.134 0.261
-0.385 0.468
-1.723 -1.091
0.498 0.107
-0.361 1.381
0.214 -0.469
0.557 -1.430
0.609 -0.715
0.457 0.066
0.095 -1.050
-0.515 -0.568
-2.081 0.398
0.751 -0.016
-0.481 -1.103
-0.394 -1.182
1.950 0.111
1.537 -1.116
-2.252 1.745
0.212 0.847
0.251 -1.646
0.552 -0.034
-0.357 -0.355
-0.869 0.678
0.263 0.718
-1.491 -0.128
0.016 1.870
0.760 -0.165
0.729 -0.073
-1.323 0.041
-0.102 -1.993
-0.394 -0.644
1.130 1.313
-0.611 -1.135
-0.031 -0.503
0.274 0.196
-1.346 0.517
0.537 -0.644
-0.909 0.542
0.142 -0.685
-1.187 0.299
1.019 2.238
1.422 -1.237
0.730 0.610
-0.140 0.598
-0.647 -0.937
-0.018 -1.097
-0.932 1.830
-0.228 0.207
-0.146 0.652
0.297 -0.222
-1.519 0.301
0.171 -0.113
-0.289 0.966
0.440 0.775
-0.785 -0.313
-0.920 0.209
0.246 0.319
1.097 0.516
-0.321 1.133
0.817 0.100
-0.565 -1.709
-1.103 -0.413
-0.534 0.286
-0.542 -0.502
0.677 1.971
0.985 0.045
1.173 0.598
1.008 -0.797
-0.481 0.823
-1.160 -0.145
-0.292 -2.214
0.812 -0.374
0.153 0.646
0.255 0.020
0.494 -1.858
0.259 -1.804
1.562 0.407
-0.280 -0.287
0.401 2.068
0.402 0.573
1.626 1.683
0.442 0.263
0.707 -0.723
-0.977 1.346
-0.594 -0.028
-2.831 0.021
1.399 -1.297
0.288 -0.584
-1.091 0.590
0.761 -0.071
0.552 0.277
-0.514 1.008
-1.386 -0.755
-0.471 0.463
-0.772 -0.118
0.084 0.064
-1.529 -0.061
-0.636 0.129
-1.244 0.633
-0.787 -0.471
0.392 0.777
-1.383 -0.398
-1.370 -0.832
0.219 -1.544
-1.674 0.316
-0.393 -1.063
0.837 -0.531
-0.478 -0.507
-1.587 -0.303
0.476 -1.158
0.555 -0.843
-0.853 -1.856
-0.928 -0.031
-0.131 -1.363
2.041 -0.244
0.747 0.241
-0.021 -0.863
-1.478 -0.215
0.974 0.504
-0.757 -1.526
1.789 -1.712
-0.742 -2.085
-1.452 0.072
1.547 1.876
1.334 -0.173
-2.197 0.042
-0.217 -2.270
-0.338 0.124
-0.747 0.456
0.754 -0.252
1.532 -0.036
2.348 1.187
-1.700 1.129
0.226 1.264
-0.415 -1.048
-1.230 0.448
-0.541 0.855
-0.636 -0.787
1.391 -0.543
-1.880 -1.830
0.589 1.040
1.456 0.923
0.569 -0.081
0.323 -1.185
0.097 1.090
-2.760 -1.861
0.510 0.239
0.641 -0.543
-2.347 -0.264
0.669 1.206
1.465 1.232
-1.318 -0.366
0.714 -0.261
0.058 0.600
1.054 0.748
-0.181 1.898
1.192 -0.331
-0.388 -0.815
0.803 -1.348
-0.688 0.995
-0.866 0.118
0.602 -0.730
-0.215 -1.119
0.446 0.992
0.811 -0.058
0.805 -2.848
-0.509 2.020
-0.923 1.089
0.542 -2.781
-1.779 -0.508
1.355 0.135
-0.064 1.964
3.689 -1.132
-0.884 -0.210
-0.316 -0.144
-1.007 0.692
-1.715 -1.050
0.933 -0.543
-0.961 2.397
0.553 0.101
-0.097 1.275
-1.453 1.721
0.294 -0.370
0.092 0.587
-0.958 -0.566
-1.675 0.497
0.134 0.171
-0.455 -0.597
-0.186 -1.023
-1.390 0.049
-0.650 -0.628
0.044 0.227
1.302 -1.389
2.270 1.170
-1.012 -0.632
0.738 -1.183
-0.926 -0.189
0.643 -0.669
0.658 0.583
1.336 -0.679
0.087 -1.114
-0.701 0.716
0.148 0.647
-0.314 -2.279
0.121 -1.797
1.246 0.380
-0.594 -0.330
0.632 -0.860
0.982 -0.291
-0.535 -1.848
0.359 0.399
-0.383 0.325
-0.539 -0.573
-0.426 -1.908
0.445 -1.091
0.244 -1.016
-0.478 -1.304
-0.497 0.818
0.580 -0.926
-0.317 0.782
-0.813 -1.576
-0.210 -1.119
-0.825 -0.686
-0.239 -0.187
-0.155 -1.051
0.699 -0.908
0.645 0.597
1.835 0.831
1.792 0.243
-1.514 -0.221
0.761 0.020
0.093 -1.584
0.897 -0.254
0.240 -0.148
1.261 0.861
-1.545 -0.199
0.494 -0.009
-0.761 -0.271
-0.331 -0.879
0.012 -0.990
-0.813 -1.504
-0.066 0.410
-0.502 -0.221
-1.957 -0.443
0.039 1.131
-0.419 0.386
2.436 1.480
-0.920 0.815
-1.289 -1.501
-1.156 0.944
-0.477 0.948
1.093 -1.105
0.826 0.774
-0.004 0.788
0.190 -0.707
1.644 -0.651
0.312 0.680
0.305 -0.440
1.610 0.461
-0.612 -0.007
0.916 -0.221
-0.235 -0.229
-1.060 -0.912
-0.315 -0.101
-0.176 -0.354
0.063 -0.702
0.384 0.155
-0.245 1.890
-0.454 0.839
1.909 -0.533
-1.437 -0.229
1.137 -2.018
-1.149 0.114
0.092 -1.097
-0.501 1.020
-0.869 -0.866
-0.654 1.849
0.211 -0.796
-0.492 -1.586
0.939 -0.444
0.009 0.047
-0.191 -1.044
1.252 -0.518
1.652 -2.101
-1.712 -0.842
0.556 -0.463
0.877 0.627
-1.113 0.894
-0.475 0.824
0.410 0.883
0.227 0.101
-0.759 1.077
0.090 -0.835
0.698 1.004
-2.288 0.760
-0.023 0.090
0.648 0.731
-0.339 0.238
1.482 -2.088
0.031 0.196
1.203 -1.612
-0.142 -2.211
1.193 -1.575
1.046 -0.849
0.726 0.567
-0.700 -0.349
-0.501 0.077
0.454 -0.790
0.436 0.861
0.441 0.260
0.047 -1.666
1.273 0.272
-0.218 -0.708
-1.174 -0.320
0.515 0.319
-0.893 -0.246
0.759 0.801
-2.273 0.815
-0.832 -0.807
0.652 -0.754
0.550 0.803
-1.897 -0.565
-1.453 1.392
-1.323 1.328
-1.365 0.549
1.072 0.259
1.284 -0.533
-1.221 0.300
1.277 -0.682
-0.685 -0.541
-0.645 -1.985
0.404 0.058
0.123 2.003
0.536 0.095
-0.492 0.534
-0.534 0.584
0.243 -0.246
0.072 0.755
0.122 0.210
-2.670 0.237
0.608 -0.740
1.324 -1.020
0.125 0.245
0.976 -0.631
-0.051 -0.046
-1.147 1.380
-0.488 1.757
0.078 2.237
1.739 -1.888
1.106 1.384
0.768 -0.087
-0.305 -1.025
-0.686 -0.515
-1.432 0.762
0.706 -1.656
0.907 2.477
-0.207 0.037
-1.107 -1.185
0.415 0.708
-1.142 -1.251
-0.212 -1.378
-0.840 1.514
0.705 -1.392
-1.285 -0.545
1.006 -0.655
-0.950 -1.251
0.435 -0.125
-2.312 0.153
-0.631 -0.879
0.363 -1.870
1.254 2.441
2.206 0.060
-0.949 0.689
-0.081 0.280
0.572 -0.490
-0.372 -1.244
-0.151 -0.057
-0.246 -1.203
-0.295 -0.102
-0.030 -0.457
0.300 -0.198
0.517 1.114
1.915 1.279
0.012 -1.063
-0.228 -0.862
-0.142 0.579
-0.614 1.956
0.674 -1.610
0.952 -0.592
0.434 0.937
0.718 -1.045
-1.222 -0.217
1.376 -0.370
0.084 0.181
0.893 -1.613
1.863 0.435
-1.556 2.134
-1.604 -1.851
-1.265 0.791
-0.905 -1.714
1.236 -2.037
-0.151 0.826
-0.208 -0.003
-2.850 -0.750
0.618 -0.304
0.489 0.345
-0.932 2.873
0.831 -1.616
1.172 -1.085
-0.075 0.949
-0.911 0.173
-0.916 -0.130
-2.499 -1.572
0.113 0.173
-1.843 1.411
0.525 -2.640
0.083 -0.938
-0.678 1.316
0.703 -0.310
-1.138 -1.557
-0.057 1.444
1.566 1.952
1.406 0.681
-0.544 0.035
0.525 -0.788
0.189 -0.998
-0.397 0.405
-0.449 2.611
-0.661 1.483
0.163 2.240
-0.162 0.497
0.558 -0.251
-0.772 0.462
-0.550 -0.202
-0.254 1.056
-1.295 0.021
-1.592 -1.073
1.973 0.822
-1.641 -1.194
-0.843 1.621
-0.643 0.240
0.274 -1.155
0.252 2.078
1.267 0.128
1.127 -1.081
0.800 -1.524
-0.745 1.661
-2.193 0.827
-1.199 -0.415
-1.764 0.101
0.932 0.639
-0.043 -0.831
-0.933 0.922
-0.571 -0.193
0.446 0.076
0.306 -1.380
0.176 -2.296
-1.128 -0.889
-0.614 -0.094
-1.781 0.634
-1.009 -0.920
1.313 0.849
0.063 -1.073
0.890 -0.474
2.051 -0.702
-1.221 2.008
-0.249 0.032
-1.155 0.774
0.307 0.203
0.383 -1.266
0.405 -0.681
0.586 -0.129
0.639 0.813
-0.734 1.296
0.475 -0.759
-0.509 -0.486
-1.309 0.208
-1.055 1.397
-2.293 -1.318
-0.293 -1.335
1.105 0.222
1.041 -0.770
-0.587 0.143
-0.801 -0.792
-0.515 1.636
-0.937 -0.644
-0.442 -1.237
-0.268 0.497
0.164 1.097
0.976 -1.911
1.322 0.554
-0.039 -0.607
-0.542 0.303
-0.747 0.569
1.601 0.182
0.169 -0.960
0.384 -1.539
0.257 -2.036
-0.743 -0.090
-0.479 0.276
-0.272 0.944
0.466 0.123
0.542 1.073
0.760 0.721
-1.695 1.187
-1.105 0.434
-1.116 -0.973
0.705 -0.954
0.151 0.366
-0.156 -0.348
0.738 -0.257
-0.830 0.238
-1.378 -1.143
0.441 -0.787
-1.054 -1.854
-0.119 0.416
-0.795 -0.374
1.612 -0.283
-0.453 -0.039
0.317 -0.097
0.180 0.479
0.200 1.311
0.054 -0.344
0.286 1.508
-0.261 0.312
-1.338 0.253
-1.150 -1.097
-0.383 -0.104
-0.598 -1.167
1.496 -0.429
0.269 0.236
0.352 -0.591
-0.317 -0.525
-0.392 0.641
-0.948 1.854
0.282 1.316
0.116 -0.553
0.859 1.166
0.117 0.632
-1.186 1.164
-1.718 0.127
2.224 0.514
0.861 -1.407
1.153 -0.192
1.090 -0.926
2.114 -0.902
0.636 -0.439
-0.933 -0.475
1.873 0.308
0.220 0.266
-0.388 -1.457
1.391 0.671
0.279 -0.572
0.754 0.618
-0.602 0.052
-0.693 0.082
-0.066 -0.288
-1.823 -0.861
-0.086 1.064
-0.196 -0.385
-0.569 -0.583
-0.799 -2.037
-0.331 0.565
0.857 -1.080
-0.202 1.340
-1.034 -0.189
-0.840 -0.049
-1.893 0.673
-0.010 -0.040
-0.104 0.735
0.957 -1.025
0.324 -0.846
-1.910 -0.485
-1.196 0.412
-1.485 1.269
-0.356 -2.677
0.010 -0.219
0.286 -1.033
0.967 -0.771
-0.574 1.366
-0.216 -0.522
-0.829 0.573
-0.617 -0.608
0.539 0.124
1.401 -1.379
2.105 1.307
1.197 0.121
0.591 -0.780
1.495 -0.375
-1.932 -1.346
-0.904 -0.060
-0.230 0.103
0.431 1.204
0.911 0.870
0.748 0.638
-1.004 -0.904
0.692 -0.615
-0.910 -1.579
-0.410 -2.044
-0.253 1.272
-0.198 0.453
0.473 0.569
-0.648 -1.245
-0.638 -1.039
-1.982 -0.634
-0.436 -1.171
-1.752 1.025
-0.516 0.213
1.898 1.467
-0.368 1.333
-0.372 -1.137
1.417 -0.409
-2.045 0.467
-3.162 -0.015
1.378 -0.923
-0.082 1.584
1.534 -0.368
2.293 1.442
1.293 0.512
1.552 -1.069
-0.713 0.216
-0.018 0.082
0.423 0.069
1.995 2.257
-0.793 0.692
1.874 0.882
1.473 -0.574
-0.375 -2.303
-1.227 0.562
1.302 0.242
0.766 0.398
0.119 -0.183
0.703 -0.128
-1.474 0.624
-0.619 0.339
-1.224 -0.663
-0.134 1.874
-0.139 0.775
-1.278 -1.324
-0.056 1.438
-1.850 0.125
0.704 -0.593
-1.510 -1.043
1.272 1.159
-0.071 -0.367
1.858 1.438
0.044 1.106
-1.434 1.198
-0.592 0.738
0.166 -0.419
-0.278 2.477
-0.983 -0.512
0.129 0.626
1.474 -1.646
-0.320 0.200
-0.579 1.232
0.573 -1.554
1.061 -0.104
-0.710 0.982
2.178 -2.015
-0.385 -1.382
0.353 1.044
0.575 0.728
-0.400 -0.391
-0.014 0.377
0.694 -0.110
-1.053 -0.070
0.453 0.074
-1.027 -1.245
-0.471 0.987
-1.622 0.454
-0.299 0.324
-0.799 0.833
0.909 0.650
-1.419 -0.449
-1.055 0.655
0.682 -0.200
-0.248 0.178
1.379 -0.209
-1.284 1.269
1.458 -0.464
0.215 1.620
-0.763 -0.501
0.070 0.637
0.426 0.011
0.292 -0.211
-0.177 1.045
-0.447 1.369
0.290 0.651
-0.350 0.598
0.853 0.285
0.214 2.482
-0.739 1.647
-1.273 -0.357
-0.807 -2.225
-0.057 0.946
-1.111 1.201
0.569 0.028
-0.086 0.480
0.842 0.086
-1.878 -0.280
0.024 -1.314
0.270 2.490
-0.174 -0.223
1.883 -0.917
-1.538 0.681
-0.782 -1.040
1.806 -0.213
-0.671 -0.566
-1.654 0.433
-0.438 -0.152
0.063 1.019
0.595 1.468
1.335 -2.122
-1.366 -0.365
0.838 1.707
-0.110 -2.056
2.223 0.354
0.740 1.142
-0.316 1.582
-0.546 -0.129
0.056 -0.957
0.362 -0.922
1.275 -0.907
1.376 -0.871
0.410 1.330
0.605 0.003
-0.929 0.891
0.548 -0.544
-0.212 -2.039
-0.499 -0.638
0.897 -0.047
1.914 -1.019
1.128 -0.972
-2.227 0.761
0.373 0.005
-0.688 -0.146
-1.522 1.170
-0.649 -1.960
-1.644 0.910
0.144 0.496
-0.232 0.950
0.679 1.307
-0.730 -0.339
0.567 -2.781
0.804 -0.864
-0.266 0.095
-0.713 -1.225
0.530 -0.585
-0.602 0.647
-0.890 -0.617
0.188 0.105
-0.918 -1.939
-0.660 0.034
-0.713 -0.952
0.479 0.494
0.530 0.936
0.619 -0.665
0.088 1.469
0.407 0.890
-0.708 -0.666
0.817 -0.250
0.451 0.472
-0.570 -0.276
-0.021 0.203
0.614 -0.365
0.137 -0.430
-2.984 -0.224
-1.004 0.975
0.603 1.214
0.428 0.537
-1.157 -0.621
0.284 0.297
-0.202 -1.129
0.277 -0.021
1.606 -0.950
-1.127 1.623
-1.551 -0.538
1.287 0.139
-0.207 -0.478
-0.383 -1.291
0.951 1.244
-0.594 2.048
-0.023 -1.506
0.019 -0.749
0.867 -1.514
-0.208 -0.254
1.807 -1.118
0.335 -1.011
-0.536 0.707
0.634 -0.172
0.081 0.332
-1.059 0.670
-0.005 1.763
-2.781 1.387
-2.137 -0.607
0.238 -1.027
-0.016 -0.857
1.247 -0.276
0.198 -0.499
-0.545 -0.919
-0.534 1.043
0.371 -0.467
0.531 2.072
-0.252 0.281
-0.389 0.506
0.117 -0.263
0.339 -0.841
-0.816 1.264
-1.271 0.766
-0.296 -0.135
-0.000 0.069
1.584 -0.241
-1.208 -0.223
-2.797 0.844
-0.175 0.445
-0.077 -0.167
-1.118 0.124
0.916 -0.876
-0.386 1.171
0.786 0.468
1.376 -1.169
1.536 -0.617
1.921 1.519
1.629 0.309
0.749 0.058
0.441 -1.292
-2.654 -1.402
-0.874 -1.126
-0.059 -1.086
0.027 -0.815
0.372 0.361
-0.703 -1.140
1.036 -0.167
1.286 -0.889
-0.583 -1.716
-1.467 1.098
-0.384 -0.878
0.033 0.512
-0.076 0.635
-0.518 -1.245
1.452 0.398
-0.610 -0.361
0.749 2.107
0.589 -1.972
0.554 -1.326
0.401 -2.016
0.944 -1.634
-0.037 -0.565
-0.271 -0.757
0.393 0.565
0.151 1.827
0.994 -0.547
0.549 -1.489
-0.566 0.750
0.443 -0.489
-0.043 0.946
0.586 0.078
0.806 -0.731
-1.453 2.530
0.907 0.394
-1.011 -1.429
-1.219 0.345
-0.507 1.742
-0.887 0.624
-1.302 -0.609
-0.947 -2.394
-0.635 1.402
0.539 0.215
-2.194 1.717
1.946 -0.604
-1.682 -1.538
-1.478 0.217
-0.633 2.038
-0.440 -2.259
0.473 -0.470
0.805 -0.392
0.429 -0.034
-0.099 0.340
-0.545 -0.169
-1.256 0.599
0.271 0.919
-0.717 0.232
-0.679 -1.266
-1.204 1.330
0.515 -1.590
0.388 1.036
0.561 -0.665
0.735 -0.251
0.027 -0.109
0.148 0.124
0.583 -0.195
-0.380 1.262
0.553 -0.286
-0.262 0.813
0.259 -1.110
0.409 -1.418
-0.701 -1.053
-1.125 0.628
0.114 -0.404
1.779 0.708
1.590 1.712
1.213 -1.932
1.528 -0.714
-0.566 0.362
-0.837 -0.290
1.242 1.748
0.315 0.445
-0.588 -1.256
-0.807 1.022
1.149 -1.387
-0.215 -0.276
0.040 1.099
0.392 -0.356
0.014 -0.188
0.521 -0.048
0.278 -0.344
3.152 0.737
1.184 0.133
2.991 -1.823
-2.377 0.920
-0.921 1.305
-0.350 0.692
-1.704 -0.169
0.109 0.201
-2.039 -0.274
-0.107 -0.657
-1.445 -0.891
0.945 0.832
1.445 0.764
0.366 -1.722
-0.839 -1.160
-1.792 -0.146
-1.422 -1.153
-0.529 -1.315
-0.274 0.470
-0.768 -1.778
-1.723 -0.167
0.545 -1.124
0.786 0.693
-2.375 -0.638
-1.800 -0.996
0.741 2.117
1.598 -0.004
-0.092 -0.006
1.949 0.221
-0.277 -1.054
0.377 0.134
0.557 -1.803
-2.891 1.785
-1.571 0.192
-1.316 2.136
-0.767 0.924
0.525 1.114
0.972 0.575
-0.168 0.824
0.626 -0.293
-1.429 -0.160
0.061 -0.545
0.284 -0.022
1.336 1.383
-1.460 0.241
-0.354 -0.352
-0.314 -0.367
-0.457 1.000
2.887 -0.739
-1.792 0.464
-0.064 -0.404
-0.254 1.615
-0.385 -2.771
-1.189 0.366
1.145 -0.483
1.392 1.075
-0.458 -0.597
-1.632 -0.426
-0.932 1.200
0.599 0.308
-0.966 -0.146
0.063 0.968
-0.164 0.008
0.761 1.125
2.092 -0.622
1.074 0.617
-0.524 0.619
-0.113 2.957
0.233 0.578
-0.589 -1.168
-1.126 0.932
-2.368 -0.683
0.171 1.325
-0.176 -0.762
1.153 -1.192
-0.146 0.286
-0.998 1.410
0.163 -0.081
0.800 -1.289
-0.476 -0.432
-1.533 -0.890
-1.224 -0.048
-0.236 0.640
-0.670 1.393
0.922 -1.297
1.394 1.672
1.300 1.414
-0.943 1.594
2.519 -0.742
1.244 -0.651
0.520 -0.369
-1.445 0.272
-1.192 -1.066
-1.667 -0.813
-0.877 0.941
-0.321 -0.249
-0.107 0.485
0.110 -0.015
0.687 0.633
0.085 -0.099
0.727 0.185
-0.854 -0.955
-0.139 -0.722
0.759 -0.564
-0.107 -0.400
-1.002 0.324
0.346 0.053
0.191 -0.502
0.084 1.377
0.114 -0.788
0.304 1.561
1.158 -1.836
-0.221 0.086
0.506 0.596
1.061 0.910
-0.602 0.147
-1.845 -0.751
-0.014 0.413
-1.589 0.415
2.057 -0.339
1.374 0.074
-0.761 0.897
-0.031 -0.447
-1.008 0.827
-0.368 -0.912
-2.194 1.485
-0.990 -1.880
-0.226 0.809
-0.399 -0.962
0.698 -0.879
0.453 0.542
0.445 -0.178
0.953 -0.893
-1.246 -1.221
-0.014 0.505
0.754 1.172
0.388 -2.227
-0.858 -0.052
1.334 -0.435
-0.311 -1.847
0.140 -0.824
-0.169 -1.951
1.283 0.060
0.771 -0.720
0.650 0.169
-0.800 0.974
-1.429 -0.519
-0.776 1.053
0.077 -1.217
1.229 0.072
1.040 0.352
1.650 0.031
0.039 -0.014
0.336 -1.840
-0.329 1.662
0.242 -0.141
-0.199 0.599
1.398 1.189
-0.343 -1.363
1.156 -1.398
-0.420 -0.186
-0.752 -0.814
-0.062 0.782
-0.673 -0.797
-1.045 -0.855
0.391 0.570
-1.125 -0.566
-0.894 1.096
1.093 0.580
0.107 -0.445
0.182 0.360
-0.501 0.160
0.936 0.083
-0.721 -1.005
-0.360 -1.718
-0.001 0.601
1.156 1.713
0.022 0.389
-1.683 0.777
-1.260 -0.959
1.630 1.392
0.450 0.162
0.132 1.034
0.151 -0.982
0.892 0.941
-0.995 -0.267
-0.655 0.184
-0.090 0.881
-0.285 -0.286
-1.637 0.327
0.211 -0.534
-0.424 -0.121
1.940 0.548
-0.780 0.190
-1.795 -0.127
0.153 1.172
-2.381 -1.116
-0.412 1.251
-0.572 -0.117
-0.823 2.815
-1.416 0.388
-0.126 -0.095
0.639 0.578
-0.384 1.076
0.661 -0.945
-1.193 1.513
-1.650 0.100
0.800 0.218
0.514 2.245
-0.669 1.673
-0.988 1.405
0.556 0.313
0.464 -0.622
0.784 -0.608
-1.142 -1.569
0.019 -1.314
-0.612 -0.265
0.125 1.394
0.048 -0.446
-0.387 0.155
-0.063 0.092
-0.771 -1.413
0.067 0.091
1.260 -1.257
0.700 0.891
1.632 -0.882
2.082 -1.298
0.598 -0.645
-1.297 0.667
-0.439 -0.319
0.848 -0.968
-1.533 -0.257
0.328 -1.131
0.775 0.376
1.614 1.518
-0.030 1.395
0.880 0.039
1.234 -1.043
-1.075 1.247
-1.688 1.171
1.979 -1.058
-0.420 0.194
0.807 -1.022
-0.994 1.376
-1.038 -0.394
-1.048 1.194
0.286 0.255
-0.302 -0.650
-0.080 -0.122
-0.172 1.255
-1.303 1.107
0.209 -1.234
0.110 -0.959
-0.013 0.645
-0.373 -0.498
-1.139 1.326
1.510 -1.174
0.093 -2.825
-0.038 -0.528
1.491 0.099
0.595 1.130
0.732 0.790
-0.125 -1.074
0.419 -1.869
-0.659 0.249
-0.051 0.759
0.540 -1.490
1.663 -0.998
0.120 -0.296
0.258 0.608
-0.274 -0.338
-0.026 0.887
-0.353 0.599
0.289 0.407
-0.445 1.467
0.529 -0.731
-0.942 -0.644
-0.165 0.537
0.469 -0.751
1.281 2.049
2.093 -1.160
0.316 0.320
-0.929 -0.927
-2.356 -0.583
-0.159 0.476
-0.574 -0.876
-1.686 0.248
-1.545 -0.322
1.117 -0.451
-1.028 -0.646
0.938 -1.666
-0.995 -0.696
-0.681 1.184
-0.782 -0.045
0.905 2.172
-0.656 -1.517
-0.804 -1.060
-0.976 -0.654
-0.888 0.023
-1.876 0.578
0.841 0.065
-0.326 0.239
0.372 -0.415
0.205 -0.767
-0.030 -0.111
-0.370 0.080
-0.513 0.007
0.470 -0.928
0.595 0.667
-1.247 -0.608
-1.199 -0.002
-0.776 1.125
0.894 0.745
1.637 -0.517
-0.167 -0.145
-0.808 0.280
1.261 0.999
-1.289 -2.037
0.553 -0.221
-1.095 -0.102
-0.439 -0.291
0.799 -0.020
-0.716 0.566
1.313 1.031
1.567 -1.232
-0.824 -0.050
0.553 0.368
-0.894 0.240
0.254 -1.379
0.657 -0.273
-0.862 -0.918
-1.398 0.516
-1.469 0.484
1.250 -1.263
0.788 -1.024
0.541 -1.909
-0.727 -0.635
-0.307 0.044
1.008 -0.094
0.076 -0.474
1.184 -0.918
-0.659 -2.245
-0.071 0.201
-0.700 -0.732
-1.267 -0.837
0.428 -0.847
-1.643 0.416
1.375 -0.986
-0.700 1.748
0.123 -4.121
-0.087 -1.075
-2.281 -0.244
-0.910 2.404
-0.478 -0.076
-1.250 -0.718
0.034 -0.364
-0.052 -2.660
-0.224 -0.390
-1.210 0.522
1.353 1.431
-2.229 1.230
-0.160 0.202
-0.433 0.576
-0.371 -0.666
0.097 1.148
1.299 0.768
1.234 0.249
-0.699 0.291
0.595 -1.605
-0.544 -0.908
-0.786 0.919
1.223 -0.143
0.600 0.657
1.647 0.234
0.577 -1.144
0.899 0.027
-0.453 1.476
-0.591 -0.999
-0.627 0.576
-1.209 -0.011
-0.821 -0.561
0.084 1.137
-2.301 0.153
-2.071 -0.218
-0.432 -1.519
-1.186 1.771
1.822 -0.807
1.144 0.696
2.596 0.428
-2.745 1.729
1.071 -0.930
0.908 -0.782
-1.746 -0.309
0.129 0.208
0.696 0.081
-0.714 -1.116
-2.050 -1.453
0.418 -1.052
-1.052 0.374
-0.759 0.684
-0.742 -0.629
-0.506 1.948
0.523 0.647
0.834 -0.435
0.450 0.290
-0.524 0.887
-0.755 -0.957
-0.004 -0.383
0.383 -0.554
-1.047 -0.953
-1.575 0.914
-2.513 -1.841
0.927 -0.735
-1.702 -0.339
-2.025 1.047
-1.348 0.006
1.044 0.849
0.473 1.926
1.191 -1.009
0.098 -1.210
0.218 0.077
-0.502 -0.525
0.653 1.744
-0.002 -1.264
1.344 -0.053
-0.209 -1.774
-0.677 1.501
1.517 -1.571
-0.697 -0.732
1.315 -0.470
0.109 -0.569
-0.436 0.219
-0.404 -1.301
-0.699 -1.008
-0.446 0.795
0.980 -0.295
1.065 -1.028
0.271 -0.101
-0.788 0.607
-1.030 -0.764
1.104 -0.271
0.946 -1.492
0.314 -1.026
2.008 1.289
-0.695 -0.084
0.729 -1.379
-0.825 1.384
-1.388 0.155
-0.698 0.153
-0.991 0.447
-0.007 0.904
0.677 -0.856
-0.816 0.674
0.081 0.254
-1.256 -3.053
-0.280 -0.380
-0.039 -0.084
-0.189 2.065
-1.042 -0.997
-0.364 0.561
-0.556 2.140
0.380 0.468
2.593 -0.631
-0.754 -0.372
-0.366 0.072
0.029 1.765
0.521 -1.223
1.812 0.460
-0.488 -1.729
-1.006 1.310
0.332 0.458
0.654 1.138
1.025 0.860
1.159 0.347
-0.119 -1.860
-0.645 -2.992
-0.145 -0.066
0.869 0.148
1.301 -0.079
-0.047 -1.271
0.173 0.567
-2.469 2.538
-0.563 -0.757
-0.856 -1.704
-0.131 0.932
-1.040 0.116
0.767 -0.675
0.612 -1.108
-1.431 -1.432
0.745 0.239
0.960 0.876
1.615 0.862
-1.967 2.250
-0.162 0.700
0.624 0.918
-0.676 1.574
-0.082 -0.303
-1.033 0.088
1.345 -0.250
1.418 0.933
-0.282 -1.480
-0.064 0.716
-0.127 0.520
-0.228 -1.138
0.965 0.687
0.499 -0.375
-2.373 -1.548
0.206 -0.591
-0.748 0.906
1.152 -0.875
0.764 -0.448
-0.892 1.228
0.273 0.479
0.073 -0.297
1.852 1.006
0.013 0.224
-0.266 0.305
0.426 0.606
-0.017 -0.182
-0.184 0.075
-1.729 0.417
1.156 0.890
-0.233 -2.571
0.305 0.346
-1.264 -0.486
0.323 -0.501
-0.856 -1.722
1.388 -1.692
-1.529 0.473
0.027 -1.803
0.911 0.021
-1.488 0.910
-0.578 0.711
1.433 -1.638
-0.479 0.325
2.098 0.506
-1.276 1.271
1.003 0.402
-0.665 -1.209
-0.111 -0.037
1.145 0.504
1.059 -0.387
-0.247 -0.749
0.621 0.184
-1.162 1.350
-0.984 -0.117
1.774 0.736
0.287 -0.425
0.235 0.009
0.654 -0.842
-0.928 -1.526
-0.488 1.382
0.131 0.117
1.844 0.725
-0.215 0.560
2.108 1.940
1.052 0.801
-0.454 -0.626
0.743 -1.182
-0.065 0.335
0.286 -0.616
-0.142 -1.689
0.687 0.312
-1.506 -0.120
-0.619 1.533
0.448 -0.303
0.421 -1.495
0.095 0.627
-0.896 -1.444
0.130 -1.797
1.762 -0.834
-0.391 -2.514
1.153 0.392
0.048 0.538
-2.695 -0.140
-0.902 1.852
1.336 -0.401
0.696 0.743
1.562 -2.109
-2.172 -0.557
1.082 0.289
0.235 -0.285
0.042 -1.670
0.870 -0.571
0.592 -0.525
-0.601 0.921
-0.251 0.846
-0.975 -1.312
0.021 0.769
0.987 1.098
-0.669 -1.040
-1.898 1.631
1.204 -0.751
0.803 -0.536
-0.540 -0.585
-0.519 -1.157
0.101 0.325
0.057 -0.130
-0.962 -0.441
0.415 -0.358
2.165 0.604
-0.107 1.179
1.856 -0.118
-0.025 0.067
-0.023 -1.100
1.068 0.896
-0.875 0.052
-0.879 1.565
1.172 0.007
-0.083 0.724
1.304 1.677
0.097 -0.697
-0.531 0.266
-0.313 1.195
-0.168 -0.692
1.061 -0.196
-1.791 1.082
-0.793 -1.148
0.348 -2.220
-1.385 0.138
1.348 0.389
1.014 -1.175
1.018 0.451
0.606 2.334
0.135 0.020
-0.315 -0.731
0.866 -0.384
0.448 -0.711
0.290 -0.269
0.314 -1.481
-0.671 -1.121
0.387 -1.130
0.395 0.005
-0.521 -0.852
-1.043 0.159
-0.073 1.289
0.835 0.241
0.447 0.708
1.379 -1.089
0.279 0.629
-0.162 -0.395
0.080 -0.166
0.150 -1.391
-1.167 0.471
-2.403 -0.961
0.294 -0.231
0.718 1.321
0.842 -0.387
-1.906 -0.258
0.434 -0.217
-0.347 -0.298
-1.400 -1.461
1.505 -1.107
0.488 -1.441
0.106 0.980
0.135 0.508
-1.077 -0.208
-1.228 0.606
0.792 0.625
0.308 0.211
2.032 1.560
1.903 0.448
-1.129 -0.001
0.645 0.669
-1.602 0.101
0.175 0.865
0.467 0.558
0.409 0.024
0.058 0.472
-0.106 -0.152
-0.140 -0.600
0.809 -0.696
0.423 -0.538
-0.574 -2.443
-1.587 -0.969
0.747 0.825
-1.344 0.166
0.731 -1.126
0.051 0.429
2.207 -0.312
1.014 0.781
-1.010 -0.597
1.326 -0.973
0.188 0.036
-0.034 -0.509
-0.523 0.375
-1.704 -1.390
-0.687 -0.691
-0.355 1.472
-0.371 1.057
-0.399 -0.817
2.678 1.807
-0.624 -0.581
-1.099 1.084
-0.543 -0.119
-0.370 -0.055
-0.964 2.043
0.146 -0.067
-0.184 1.381
-0.588 0.468
0.499 -0.249
-1.017 0.825
0.312 -0.514
0.031 -0.582
-0.537 -1.401
1.387 -0.099
0.518 -1.160
-0.249 2.970
0.634 0.156
-1.289 0.166
-1.885 -1.381
-0.646 -1.093
-1.631 -2.234
-0.187 0.226
-0.165 -0.909
-1.021 -0.888
-1.939 1.416
-0.246 -0.115
0.990 0.584
-0.792 0.393
0.438 -0.050
-0.052 0.199
0.276 0.192
1.583 -1.122
-0.117 -0.900
-2.141 -0.220
0.518 -0.073
-0.673 0.609
-1.504 -0.291
-1.573 -0.929
1.360 1.461
-1.958 -0.136
0.527 0.455
0.599 1.205
1.432 -1.044
-1.308 0.911
1.093 1.132
0.454 -0.145
0.850 -1.935
-1.088 -1.324
-0.379 -0.526
-0.651 0.775
-2.316 0.013
-0.253 -1.941
0.464 -1.163
0.937 -1.432
-0.074 1.046
1.270 1.452
0.709 -0.643
-0.444 1.078
0.338 -0.253
0.609 0.940
-0.430 0.306
-0.437 -0.133
-0.644 -0.446
-0.495 0.266
-0.377 -0.678
1.914 0.331
-1.611 -0.669
-0.000 -0.610
-0.168 1.262
-0.514 1.067
-0.805 0.904
0.224 -0.110
0.944 1.430
-0.148 -0.960
-0.044 0.382
-1.048 -0.384
1.018 -0.085
-0.683 -1.175
0.352 -0.775
0.248 0.955
0.137 0.154
1.239 0.370
-0.707 -0.727
0.480 -1.411
-0.304 -0.102
-0.201 -0.429
-0.184 -0.309
0.760 1.623
0.765 0.368
-0.709 1.105
1.647 -0.692
-0.565 -0.501
-0.752 -0.976
-0.909 -1.023
-1.342 0.308
0.434 0.158
0.522 -0.437
-0.862 1.301
0.302 -0.175
-1.492 0.297
0.587 0.046
-0.849 0.097
-0.036 0.471
2.388 -0.238
0.137 0.127
-0.084 1.691
0.387 0.289
-0.528 0.894
0.160 -2.013
1.049 1.271
0.339 -1.151
1.478 0.727
1.128 1.552
1.428 -0.619
-0.625 1.157
-1.469 1.735
-0.554 0.068
-0.318 -0.562
-0.529 -1.302
1.460 -0.393
0.950 -0.155
0.793 2.095
-0.070 1.905
0.667 0.683
-2.084 0.523
0.364 2.371
-1.258 -0.980
1.756 1.786
1.529 0.195
1.602 0.504
0.166 0.477
-1.704 0.431
0.410 -0.187
-1.017 0.471
-1.435 0.638
2.005 0.155
1.772 -1.183
-1.570 -1.574
0.406 -3.130
0.572 0.294
1.251 1.103
0.099 0.674
1.000 1.128
0.274 -0.844
0.804 1.055
-1.742 -0.521
0.919 -0.317
1.399 0.980
0.358 -0.406
-0.144 -1.268
-2.607 -1.864
1.197 -0.078
-0.074 -1.682
-0.602 -0.821
-0.055 2.522
0.410 -1.368
-0.660 0.454
0.288 -0.232
-0.253 0.708
-1.257 -0.701
1.650 -0.358
0.406 0.784
-0.091 -0.112
-0.373 0.395
1.469 -0.531
0.107 0.491
-0.223 0.353
-0.211 0.621
-0.020 -1.154
-0.540 2.016
1.466 0.366
0.734 -0.565
0.476 -0.250
-0.582 -0.397
0.042 0.197
0.992 -0.861
1.150 -0.783
-0.882 -1.279
-0.772 1.288
0.808 0.504
1.011 0.445
0.227 0.623
1.281 0.412
-0.176 -0.775
1.557 -2.333
0.536 -1.410
-0.058 0.606
1.248 1.243
-0.235 0.532
-0.843 -0.706
-1.272 0.531
1.974 0.025
-0.200 0.548
-0.616 1.201
0.550 -1.113
0.142 1.565
0.152 -0.346
-1.802 2.241
0.246 0.015
1.094 -0.171
-0.296 -0.446
-1.440 0.446
0.090 0.351
0.166 -0.271
0.135 0.306
0.274 1.640
0.811 -0.628
-0.664 0.667
0.159 -0.283
-0.948 -0.096
1.692 -0.327
-1.262 -1.522
-0.426 0.578
0.914 1.886
-1.004 1.157
0.795 -1.511
-0.515 -0.796
0.128 -0.340
0.884 0.192
-0.517 0.057
0.261 1.471
0.098 0.609
-1.392 -1.284
0.256 0.270
1.000 0.553
0.929 1.329
2.164 1.115
1.413 -0.133
1.066 -1.234
-0.225 0.450
-0.491 -0.376
0.775 1.042
-0.487 -0.415
-0.028 -0.062
0.381 -0.197
-0.159 0.763
0.663 -0.545
0.431 1.459
0.218 -0.699
1.451 -0.271
0.755 1.599
-0.231 -0.170
0.606 1.425
-0.008 0.059
-1.610 -0.967
-1.076 -2.123
1.148 -1.633
0.644 1.476
0.309 -0.420
0.008 0.363
-1.074 0.910
-0.388 0.742
-1.248 0.965
1.000 -0.228
0.231 0.029
-0.135 -0.533
-0.172 0.550
-1.027 0.506
-0.020 0.577
1.042 -0.120
1.587 1.358
-1.791 1.105
0.385 -0.838
1.382 0.789
0.480 0.906
-1.161 1.342
1.319 -0.120
0.017 0.452
-0.344 -0.633
1.920 0.695
-2.456 0.247
0.748 0.940
-0.365 0.177
-0.165 1.477
-0.187 -0.111
-0.039 0.718
0.690 -0.349
-1.608 -0.519
-1.848 0.664
-1.052 0.528
-0.376 -0.419
0.565 0.201
-0.118 1.239
0.308 -0.898
-1.881 -0.195
0.015 0.052
-0.535 -0.139
-1.208 0.339
-0.629 -1.601
-0.203 -0.200
-2.100 0.802
0.621 0.050
-0.328 0.435
0.911 0.293
-0.261 1.145
-0.846 -0.068
-1.362 0.885
0.672 0.358
2.509 1.130
-0.235 -0.177
0.576 -0.236
-0.544 -0.099
0.103 -1.575
0.653 0.760
0.163 0.564
0.363 -0.243
0.958 -0.453
-0.080 -0.134
0.206 0.753
0.470 0.185
-0.832 -1.673
-1.505 1.196
0.013 1.275
-0.199 -0.700
0.864 0.181
0.699 0.094
0.844 -2.052
-0.349 -1.289
-0.117 0.293
-0.710 0.437
-1.353 -0.580
-0.012 -1.351
-0.031 -0.229
0.828 0.523
-0.708 -0.451
0.322 -0.958
-1.110 1.319
-1.857 -0.265
-0.832 0.564
0.692 -0.172
0.713 -0.253
0.984 -0.976
1.027 1.252
-1.232 -0.766
-1.297 0.089
0.933 0.549
0.011 -1.445
0.945 0.708
1.016 1.103
-0.205 0.052
0.785 -1.172
0.663 -0.326
-1.016 1.532
-0.398 -0.882
-1.790 -0.149
-0.246 -0.805
0.784 -1.420
-2.253 0.873
-1.859 0.643
1.287 -0.454
0.617 -0.792
0.416 -3.446
-1.372 -0.269
-1.606 1.104
-0.006 -1.584
-1.398 -0.502
-0.347 -1.408
-0.431 -0.636
1.668 0.541
-0.783 -1.954
1.221 0.649
-0.969 -1.452
-0.586 1.115
-0.429 0.600
1.779 1.497
0.453 1.619
-0.855 -0.769
0.766 0.017
3.017 0.485
0.185 -1.201
-1.213 0.774
0.666 -0.281
0.246 -1.239
-1.075 0.142
0.697 -1.436
-1.566 0.878
-0.678 0.626
-0.312 -0.121
0.069 0.882
1.098 1.379
-0.631 -0.467
0.295 -0.269
-1.232 1.200
0.356 0.074
1.913 0.511
-0.586 0.146
0.250 -0.407
1.643 0.531
-1.564 -0.482
0.284 -0.183
0.323 -0.589
1.366 -0.020
1.298 -0.065
-1.305 0.534
1.313 1.320
-0.177 2.478
-0.400 1.035
0.870 0.864
-0.809 0.105
-0.464 1.581
-0.307 1.391
0.650 0.754
0.006 0.821
0.036 -0.018
-0.438 0.836
-0.765 -0.417
1.011 0.497
-0.639 -0.065
0.171 -0.018
-1.305 -0.815
0.123 -2.361
0.604 -0.946
0.076 0.369
-0.238 -1.030
-0.890 -0.755
-0.103 0.636
0.318 -0.060
0.604 1.468
2.240 1.495
1.158 -1.102
-0.300 -0.449
0.546 -2.946
0.571 0.679
1.137 0.219
0.097 -0.786
0.034 -0.602
-0.013 -0.273
1.303 -1.604
-1.037 0.460
-0.882 -1.096
-0.537 0.223
0.183 1.859
0.534 0.506
-1.133 0.242
-0.610 1.242
0.214 -1.573
-0.194 0.172
0.259 -0.882
0.834 -0.919
0.927 0.097
0.332 -0.840
0.419 -1.630
0.448 -0.667
-0.682 0.358
0.160 0.988
0.461 0.019
0.541 -0.457
-0.699 0.150
0.648 -1.505
-0.212 -0.960
-0.503 0.391
0.460 0.111
0.404 0.423
1.273 1.419
-0.549 -1.341
0.555 -0.517
0.286 0.126
0.567 1.445
-1.540 -0.163
0.386 -0.066
0.394 0.917
1.026 0.448
-0.075 -1.516
-0.422 -1.307
-0.560 1.276
1.246 0.103
-0.481 0.085
-0.149 -0.091
-0.513 -1.188
0.093 -0.387
-0.554 -0.042
-0.992 0.342
-1.115 -1.606
-1.015 -2.163
0.337 -0.972
-1.918 0.450
1.877 1.066
1.651 0.975
-0.233 0.973
0.338 0.253
-0.200 -0.709
0.614 -1.133
-0.518 -1.956
-1.266 0.701
0.046 1.615
0.078 -2.359
-0.121 -1.174
-0.600 -0.317
-1.370 2.006
-0.406 1.681
1.545 0.140
-1.462 -1.093
-1.419 0.871
-1.770 1.357
-2.094 -0.652
0.643 0.754
-0.340 0.236
0.025 0.141
1.884 -0.120
-2.677 -0.408
0.987 -2.466
-0.255 0.163
1.264 1.140
-0.677 1.056
0.156 1.107
1.690 1.227
-0.902 0.366
-1.150 -0.033
-0.023 -2.030
-1.324 -1.081
1.047 -1.015
1.690 0.052
-1.007 2.063
-0.029 -0.195
-0.098 -0.884
0.944 0.079
-0.891 -0.485
0.344 -0.307
-1.425 0.116
-0.824 -0.074
-0.374 1.319
-2.745 -1.819
1.444 0.289
-0.031 -0.204
0.782 -2.379
1.730 -0.264
-0.851 -0.411
-0.289 0.747
1.205 0.450
0.267 0.706
-0.055 1.363
-2.017 -0.849
1.795 -1.084
0.511 -0.548
-0.187 -0.346
1.336 -1.592
-1.103 1.182
-0.436 -1.065
0.046 0.423
0.760 0.771
0.444 -0.033
-0.017 2.090
0.961 -0.271
-0.374 -0.869
0.590 -0.553
0.122 1.475
0.899 0.196
1.536 -0.984
0.364 -0.850
0.179 -0.344
1.039 1.167
2.490 0.592
0.598 0.582
0.865 -0.020
0.243 0.106
-0.736 0.154
0.693 2.021
-1.377 -1.079
0.393 -0.055
-1.416 -0.974
-0.407 0.576
-0.946 0.468
0.939 -1.299
-0.019 1.269
0.185 0.752
0.491 0.494
0.032 -1.059
-0.783 -1.613
0.672 -0.288
0.822 0.471
1.387 1.267
1.025 -0.596
-0.196 0.125
0.811 -2.469
-0.702 -1.272
1.245 -0.322
1.673 1.152
-0.569 -0.634
0.331 0.284
-0.485 -0.567
0.430 -0.064
-0.249 0.355
0.407 -0.497
-0.444 -1.025
1.247 -0.357
1.234 0.488
0.594 0.294
-1.406 0.186
-0.477 0.579
0.180 1.106
2.178 -0.807
-0.026 0.899
-0.321 0.640
-0.938 0.293
0.919 2.428
-0.691 -1.290
-2.002 0.019
-1.190 -1.135
-1.680 -0.039
-0.483 -0.906
-2.418 -1.158
-0.608 -0.372
-0.246 0.502
-1.297 -1.236
-0.127 -2.052
0.287 -0.484
0.573 -1.415
1.146 -0.522
-2.705 1.582
-1.136 1.240
-0.432 -0.751
0.120 2.702
0.423 1.134
-0.260 -0.512
-0.126 -0.379
0.721 -0.765
-0.911 0.732
-0.074 -1.554
0.748 -1.408
-0.175 1.231
-0.466 0.293
-1.772 0.128
-0.098 -1.569
1.084 1.102
-1.173 -0.381
0.083 -0.269
0.401 0.673
1.071 -0.826
0.146 -0.006
-0.560 -1.426
-0.526 1.385
-0.259 -0.492
0.345 -0.428
1.129 -0.169
-0.664 -0.916
-1.213 -0.150
0.546 -1.479
-0.224 0.232
-0.682 0.942
-2.740 0.230
-0.505 0.765
0.232 0.732
-1.388 -0.822
-0.261 -0.849
-1.631 1.008
-3.033 0.766
0.029 2.277
-0.273 -0.131
0.330 -0.279
-0.248 -0.610
-0.347 -0.339
1.364 0.925
-0.049 0.482
0.559 -0.456
0.673 0.671
-0.305 -0.964
-0.371 1.189
1.223 1.189
-0.229 -0.493
0.137 1.178
0.444 0.857
-0.195 -1.842
-0.691 -0.647
0.396 1.860
0.135 -0.604
0.149 -1.343
-0.223 -2.800
2.032 0.113
0.503 1.802
0.460 0.289
0.991 -0.180
1.129 -0.398
-1.212 0.482
-1.553 -0.502
0.648 0.437
0.537 -2.827
0.513 0.141
-2.331 -1.365
-0.647 1.315
0.333 -0.164
-1.322 0.379
0.114 0.890
0.488 -0.301
1.346 -0.264
-0.932 -0.206
0.327 -0.842
0.328 0.486
-0.286 0.634
-0.173 -1.145
-0.093 0.924
0.386 0.247
-0.922 0.650
-0.464 -0.028
0.366 0.271
0.492 0.344
1.410 -0.675
-0.353 -2.265
-1.055 -0.011
0.229 -1.570
0.084 0.659
2.011 -0.745
0.590 -1.632
0.040 -0.380
0.800 -0.810
-0.557 -1.169
-0.419 0.778
1.627 0.859
-1.040 0.088
0.245 -0.999
-0.400 0.481
-0.806 -1.596
-0.875 0.141
1.563 -1.220
0.804 -0.753
1.312 0.453
0.191 2.308
1.000 -0.361
0.443 -0.734
-3.607 1.127
-0.597 0.450
-0.641 0.888
0.547 0.372
0.116 0.855
2.495 -1.349
0.195 -1.404
-1.538 -0.428
-0.433 -0.602
-0.622 0.744
0.387 1.810
-1.765 0.160
-1.531 -0.106
0.750 0.088
-0.296 -0.251
-2.029 -0.541
0.989 1.630
1.412 0.634
0.141 -1.171
1.693 -0.684
1.806 -0.995
-1.015 1.555
-0.371 0.384
1.114 -1.643
0.424 -0.130
-0.346 0.020
0.031 0.693
0.536 -1.957
-0.908 0.941
-1.307 -0.359
0.531 0.055
1.011 -1.182
1.261 -0.608
1.059 -0.346
-0.003 -1.948
0.255 -0.539
0.467 0.425
1.052 0.421
-1.669 0.784
1.998 -0.836
0.036 -0.074
-0.415 1.309
-0.082 0.298
0.316 1.262
0.345 -1.325
-2.960 1.111
-1.324 -0.151
-1.935 0.472
-0.497 0.223
-1.314 0.662
0.919 -1.149
-1.569 -0.629
1.204 -0.727
0.537 -1.252
1.280 -0.490
0.518 -0.719
-0.412 -1.474
-0.515 0.449
0.219 0.356
0.485 0.896
0.148 -1.347
1.173 -1.166
0.865 -0.891
-0.802 0.416
1.774 -0.314
-1.795 -0.785
0.816 2.828
1.295 0.355
-1.725 0.650
-0.299 -0.405
0.659 -1.448
0.894 -1.325
-1.488 0.008
-0.518 -0.257
-0.479 1.530
-0.510 -0.613
-1.984 0.155
-1.696 -0.860
-1.353 1.105
-0.317 -1.120
0.412 1.279
0.283 1.507
1.288 1.137
-0.060 -0.012
0.342 -0.481
0.316 -1.769
-2.264 -0.702
0.931 0.876
-0.847 0.211
-1.096 0.252
1.125 0.575
0.459 -0.216
2.756 1.160
0.827 -1.479
-0.817 0.169
0.394 -0.630
1.124 0.746
0.295 -0.440
-1.026 -0.287
1.972 -1.231
-0.571 0.573
-1.770 -1.518
1.520 0.455
-1.410 -0.723
1.150 -0.091
0.621 0.919
1.550 -0.398
0.686 -0.142
-0.568 1.488
-0.333 2.096
2.003 -0.863
0.189 -0.631
-0.391 -0.947
0.581 -1.942
-0.171 1.468
0.761 -0.966
1.491 0.644
0.058 0.818
-0.625 1.753
0.358 1.540
0.185 0.702
-0.700 -0.625
-0.905 1.164
0.559 1.396
0.638 0.462
-2.673 -0.289
-0.166 -0.117
-0.035 -1.821
-1.006 -1.704
1.742 -0.162
-0.740 1.750
0.389 -0.402
-0.035 -0.632
0.039 1.068
0.924 0.261
-1.338 -1.296
2.163 -0.160
-0.121 -2.094
-0.974 -1.416
-0.451 -0.466
-1.116 -0.615
-0.258 -0.941
-0.090 0.544
-0.249 -0.073
-0.018 -0.164
-1.327 -0.391
-0.056 -0.633
-1.139 0.041
-0.915 -0.461
1.501 0.433
-0.432 0.466
-1.561 0.915
-1.384 -0.066
0.244 -0.769
0.234 -1.034
0.606 0.202
-0.458 -0.141
0.969 0.569
-0.367 -0.674
-0.858 -0.567
0.952 0.617
0.178 -0.756
-2.161 -0.417
2.428 -1.156
0.496 1.557
0.329 0.666
-0.670 -0.199
-1.343 -1.435
-0.286 -0.596
-0.919 -0.238
0.384 0.061
1.834 -0.166
0.712 0.355
-0.767 0.709
2.626 2.268
0.810 0.792
-0.838 -1.066
0.994 0.003
0.602 -0.655
-0.802 -1.414
0.143 -3.053
0.808 -0.280
0.724 -0.628
1.024 0.846
0.597 -1.002
1.871 -1.794
-2.210 -0.726
0.272 -0.074
-0.925 -1.635
-1.196 -0.432
-2.173 -0.007
-0.856 0.000
-1.467 -0.131
0.982 0.181
-1.376 -0.027
0.753 -0.447
0.582 -1.129
-1.539 0.222
1.309 -1.263
0.147 -1.834
-0.419 -0.008
-0.751 -0.780
-1.917 -0.275
-0.196 1.506
0.151 -1.250
-1.395 1.188
0.391 0.573
0.441 0.697
0.890 0.474
0.709 -2.041
-0.067 0.439
0.819 -1.207
-1.369 0.268
0.088 0.184
-0.575 -0.375
0.009 -1.853
0.784 0.671
1.170 0.939
-0.547 -1.470
-0.574 -0.066
-0.406 2.246
-0.111 -0.417
0.344 0.727
-0.151 -0.613
0.307 -1.684
-1.231 -0.526
1.589 0.345
0.834 0.381
1.363 -1.682
-3.040 -0.554
1.064 0.327
0.453 -0.452
-0.244 -0.479
-1.333 1.055
-0.397 1.035
-0.105 -0.948
0.109 -0.868
0.695 -0.648
-1.136 -0.635
-1.761 1.822
0.560 -0.984
0.073 0.229
0.262 0.216
0.132 -0.277
0.154 -0.861
0.535 0.520
1.097 -0.853
0.688 0.181
0.991 1.056
1.777 -1.136
1.067 0.445
-1.361 1.337
0.224 -0.077
0.366 -0.184
0.429 -0.328
0.877 -0.491
0.025 1.699
0.564 -0.242
0.085 0.750
-0.756 0.350
-0.965 1.068
-0.751 0.501
-0.430 0.097
-0.071 0.614
-0.020 -0.063
-0.867 2.049
2.177 -0.505
-1.199 -0.036
0.344 -1.118
-0.235 1.836
0.281 0.207
0.535 -1.266
1.187 0.808
-1.175 0.636
-0.944 0.333
0.469 1.296
0.348 -0.563
0.974 0.068
0.658 2.548
0.013 -0.457
-1.288 0.656
-0.480 -0.586
-1.291 -0.431
-0.158 -0.682
0.353 -0.629
-0.261 -1.669
0.693 -1.102
1.037 -0.358
0.719 0.124
0.055 -0.246
0.509 1.243
0.982 0.856
-2.163 -0.811
-0.474 -0.074
0.327 0.370
-1.721 0.147
0.506 -0.349
0.479 -1.173
0.971 -0.028
-1.652 0.956
-1.160 -0.539
1.001 -0.202
0.040 -0.622
0.199 -1.030
-1.900 -0.827
-1.415 0.678
1.342 0.484
0.095 0.039
-0.828 -1.347
0.613 0.578
0.806 -0.403
1.460 -0.187
-0.246 -0.906
1.904 0.941
0.085 -0.313
0.568 -0.247
-0.519 -1.009
-1.082 1.718
-0.588 0.019
1.148 2.122
0.502 1.072
2.317 0.635
-1.869 -0.342
0.187 -0.492
-1.229 -0.217
0.064 0.287
1.276 -0.989
1.250 0.067
0.870 -0.656
-0.543 0.780
-0.042 1.704
1.332 -0.158
-0.426 -1.220
-0.913 -0.437
0.931 0.170
0.243 -0.342
0.279 0.565
0.596 -1.464
0.081 0.700
-0.068 -0.558
-0.225 -0.955
-0.932 0.694
1.011 -0.558
1.494 0.809
-0.964 -0.584
-0.448 -0.389
1.277 0.357
0.396 0.418
-0.395 -0.452
1.347 -0.371
0.448 0.885
-1.006 2.252
-0.212 0.643
-0.106 0.504
1.509 -0.940
-1.972 1.057
-0.684 0.170
-0.211 -0.843
0.282 -0.750
-0.945 0.016
-1.345 0.012
-1.210 0.146
-0.188 2.082
-0.284 0.624
-1.699 0.145
-0.281 -0.293
0.756 -0.334
0.239 0.119
0.391 1.299
0.244 -0.023
0.466 1.633
-0.307 -0.102
-1.707 -0.356
0.299 0.991
-1.059 1.519
-0.865 0.365
-1.914 -0.752
0.610 -0.130
-1.272 -0.131
0.488 -0.284
1.860 -1.006
0.314 1.059
0.561 -0.649
0.776 0.332
0.098 -0.055
0.169 -0.130
-0.026 -1.223
-1.184 -0.847
-1.051 1.432
0.014 0.184
-0.142 -0.769
-1.022 -1.184
1.783 1.162
0.034 0.086
1.274 -0.765
0.373 1.855
-1.447 1.155
-0.389 -0.801
-1.752 0.262
0.811 -0.492
-1.137 1.777
1.041 1.056
0.978 -0.429
0.392 0.280
-0.730 -0.102
-1.074 -0.961
0.498 0.360
0.161 0.639
-1.475 0.532
-0.626 -0.684
-1.017 -1.983
0.254 -0.099
-0.537 1.784
0.596 -0.766
-0.452 -0.956
-0.871 -0.454
0.339 0.504
-0.175 -0.581
-0.948 -1.495
-0.160 0.249
0.930 0.891
1.144 0.508
0.509 -0.164
0.853 0.627
-0.601 0.139
0.733 0.474
0.791 0.150
1.659 -1.122
-2.829 0.724
-0.840 -0.461
0.500 0.363
-0.240 0.479
-0.507 -0.249
-0.730 -0.666
-0.096 -0.091
-0.406 -0.131
-1.331 -0.032
-1.656 -0.116
0.405 0.469
-0.581 -0.775
-0.869 -1.350
-0.215 1.656
2.016 0.367
0.811 -1.442
1.316 -0.591
-0.740 -0.368
-0.821 -0.402
-0.509 -0.335
0.785 0.148
-0.127 1.022
0.168 -1.020
1.208 0.134
-0.314 1.008
2.006 -1.153
-1.168 0.521
1.287 -1.421
0.210 -0.302
1.610 -0.857
-0.210 -1.453
0.392 0.138
0.724 0.507
-0.559 -0.094
0.585 2.487
-0.613 -0.431
0.611 0.340
1.782 -0.804
0.687 -0.395
-0.606 1.521
1.260 1.609
-0.402 -1.213
-2.312 0.206
-1.980 0.527
0.808 0.920
-0.379 -2.000
1.172 -0.207
-0.635 0.034
-0.746 -0.898
0.899 2.258
-0.755 -0.434
-0.772 -0.440
-1.732 1.917
-0.931 0.072
-0.635 -0.210
-0.636 0.111
0.899 0.976
0.890 0.321
0.484 -0.227
-1.378 -0.166
0.892 0.802
-0.871 -0.221
-0.754 -0.466
-0.624 -0.166
-0.663 1.512
-1.686 0.649
-0.183 0.897
-0.760 0.195
0.268 -1.644
-1.144 -0.519
-1.903 -0.683
0.974 0.744
1.481 0.433
0.265 -0.877
0.178 0.494
0.376 -0.292
1.145 -0.946
0.119 0.912
0.534 0.150
-0.260 -0.405
-0.708 -0.504
-0.859 -0.843
0.622 1.434
1.199 0.556
-0.533 1.299
0.537 -0.582
-1.231 -0.334
-0.687 -0.866
-0.359 -0.450
-0.145 0.124
0.320 -0.745
-1.944 0.822
-1.741 -0.598
2.022 -0.407
-0.453 -2.227
-0.924 -0.332
0.921 -0.995
-0.746 0.345
-0.211 -0.987
0.350 -0.935
-0.084 0.956
1.154 1.627
1.195 0.114
-0.779 -0.719
0.404 1.458
-1.510 0.184
-0.051 -1.116
-0.215 0.486
-1.021 -0.006
0.321 0.216
-0.467 -0.468
0.001 0.633
-0.064 1.327
-1.713 -1.583
-0.132 0.517
1.115 -0.396
1.740 1.785
1.096 -1.902
0.298 0.911
0.230 0.194
-1.003 -1.175
-0.420 -0.247
-0.101 0.379
0.122 -0.022
0.454 -0.455
-0.885 2.777
0.007 0.138
-0.843 -1.079
0.019 0.531
-0.372 0.218
0.869 -0.642
-0.686 -0.010
-0.717 -1.394
-0.552 0.648
-0.418 1.498
0.609 0.236
0.467 -0.214
1.350 0.200
-0.024 1.397
-0.321 -1.521
-1.028 -0.166
-0.564 -2.012
-0.288 0.713
2.344 0.205
2.433 0.601
-1.328 0.192
1.149 0.269
-0.741 -1.600
-0.866 0.171
-1.722 0.316
2.096 -0.366
-0.384 0.517
-0.223 -0.151
0.223 0.032
0.133 0.889
1.272 1.057
-0.048 -1.777
0.242 0.569
0.731 0.092
-0.264 -0.624
1.467 2.023
0.551 0.086
-0.425 -1.246
-0.905 1.221
0.263 0.327
-0.567 -2.887
2.097 0.254
-0.445 -1.688
-1.718 1.138
-0.126 -1.026
0.254 1.208
-0.256 1.335
1.011 1.284
